{"learner":{"attributes":{"best_iteration":"146","best_score":"0.8291693035722779","scikit_learn":"{\"_estimator_type\": \"classifier\"}"},"feature_names":[],"feature_types":[],"gradient_booster":{"model":{"cats":{"enc":[],"feature_segments":[],"sorted_idx":[]},"gbtree_model_param":{"num_parallel_tree":"1","num_trees":"177"},"iteration_indptr":[0,1,2,3,4,5,6,7,8,9,10,11,12,13,14,15,16,17,18,19,20,21,22,23,24,25,26,27,28,29,30,31,32,33,34,35,36,37,38,39,40,41,42,43,44,45,46,47,48,49,50,51,52,53,54,55,56,57,58,59,60,61,62,63,64,65,66,67,68,69,70,71,72,73,74,75,76,77,78,79,80,81,82,83,84,85,86,87,88,89,90,91,92,93,94,95,96,97,98,99,100,101,102,103,104,105,106,107,108,109,110,111,112,113,114,115,116,117,118,119,120,121,122,123,124,125,126,127,128,129,130,131,132,133,134,135,136,137,138,139,140,141,142,143,144,145,146,147,148,149,150,151,152,153,154,155,156,157,158,159,160,161,162,163,164,165,166,167,168,169,170,171,172,173,174,175,176,177],"tree_info":[0,0,0,0,0,0,0,0,0,0,0,0,0,0,0,0,0,0,0,0,0,0,0,0,0,0,0,0,0,0,0,0,0,0,0,0,0,0,0,0,0,0,0,0,0,0,0,0,0,0,0,0,0,0,0,0,0,0,0,0,0,0,0,0,0,0,0,0,0,0,0,0,0,0,0,0,0,0,0,0,0,0,0,0,0,0,0,0,0,0,0,0,0,0,0,0,0,0,0,0,0,0,0,0,0,0,0,0,0,0,0,0,0,0,0,0,0,0,0,0,0,0,0,0,0,0,0,0,0,0,0,0,0,0,0,0,0,0,0,0,0,0,0,0,0,0,0,0,0,0,0,0,0,0,0,0,0,0,0,0,0,0,0,0,0,0,0,0,0,0,0,0,0,0,0,0,0],"trees":[{"base_weights":[2.1568095E-2,1.0842557E0,-1.5276461E0,-2.7167394E0,1.2960985E0,-2.3082771E0,-2.4916567E-1,-1.2403576E-1,-2.7595017E0,1.4259831E0,-1.3800119E0,-5.02621E-1,-2.5812507E0,-2.0288093E0,9.5477176E-1,8.8404946E-2,-1.4505427E-1,-2.7740602E0,-2.0773968E-2,1.4493203E0,-1.8622775E-1,1.927111E-1,-2.6415973E0,-1.8177867E0,7.387947E-1,-2.3187628E0,-1.8991932E-1,-2.6395674E0,-1.2571552E0,1.0587672E-1,-1.8922172E-1,-1.8975054E-1,-1.8524787E0,1.4951068E0,-1.2268234E-1,-2.3060567E0,9.297425E-1,-2.687091E0,3.2259196E-2,-2.4303327E0,-1.0046743E0,1.0185815E0,-1.7821256E0,-2.3746135E0,1.1469572E0,-6.454089E-1,-2.6954806E0,-2.410112E0,-2.5953156E-1,-2.9852036E-2,-1.6456603E-1,-9.548282E-1,1.5076569E0,-1.1050301E0,1.4456115E0,-2.6304204E0,5.571098E-2,1.3041441E0,-1.7687207E-1,-1.3908814E0,-2.748303E0,-1.4341033E0,-1.8623097E-1,-2.2781706E0,-7.92599E-2,1.3555915E0,-7.9537195E-1,-2.4720194E0,-5.602873E-2,-2.4628575E0,-9.742349E-1,9.812621E-2,-3.800645E-2,9.706333E-1,-1.6673651E-1,-2.7212014E0,-8.991536E-1,9.22247E-2,-2.5432363E0,2.7525133E-1,-1.9325194E0,-2.4605033E0,2.5028417E-1,1.5111068E0,-1.653329E-1,-2.306299E0,-4.9338296E-1,1.5069944E0,9.489568E-4,-1.8488419E-1,-8.4113166E-2,1.4499214E0,-1.406127E0,-1.6375022E-1,1.0000115E-3,-1.6575314E0,-1.892408E-1,-1.7930543E-1,-3.3152896E-1,-2.5577533E0,1.0000115E-3,-1.5457728E0,8.113449E-1,-1.4738421E-1,1.4245052E0,2.1238562E-1,-1.7687207E-1,-1.7886218E-1,-8.4113166E-2,-9.471384E-2,7.389418E-2,-2.7349637E0,-2.087326E0,-2.1360524E0,1.0289063E0,2.0741455E-2,8.8404946E-2,-8.96924E-2,-1.8559097E-1,-1.5616359E-1,6.8027005E-2,-1.3165194E0,-1.8614827E-1,6.9502753E-1,-1.7743536E0,5.0389796E-1,-2.5044065E0,-1.7838115E-1,-8.4113166E-2,-9.45424E-1,9.17333E-1,9.4354475E-1,1.5336657E0,3.429711E-2,-2.5765364E0,-1.4995785E0,3.8190883E-1,4.4516522E-2,1.0473607E-1,1.04429096E-1,6.3391906E-1,-2.0773968E-2,-1.4505427E-1,-2.0773968E-2,-1.5750389E-1,6.9900787E-1,-1.6862011E0,-1.8534185E-1,-2.0773968E-2,8.1747127E-1,-1.7944552E-1,-1.4505427E-1,1.1081074E0,1.4809937E0,-9.471384E-2,9.764341E-1,-1.3098161E0,-2.7434273E0,-2.0773968E-2,-2.4982746E0,-1.1536433E0,-2.3936524E0,-2.2148542E-1,-1.4738421E-1,9.8318145E-2,-1.799715E-1,9.8113817E-1,8.315549E-1,-1.6195185E-1,1.04059614E-1,-2.2469923E0,-5.2056126E-2,8.405729E-2,3.2259196E-2,-1.8584104E-1,8.362389E-3,-1.4738421E-1,9.255462E-2,-3.800645E-2,8.938859E-2,-6.720471E-2,1.0480412E-1,4.9644306E-2,-1.855548E-1,-7.3584296E-2,2.979377E-2,-1.2431849E-1,5.8056712E-2,-1.05851494E-1,9.4679214E-2,-5.8150806E-2,-3.800645E-2,8.615015E-2,-2.0773968E-2,-1.5874247E-1,1.0357934E-2,8.556965E-2,9.597799E-2,-3.8123138E-3,1.0269561E-1,1.6314654E-2,1.0000115E-3,9.255462E-2,-1.5874247E-1,3.2259196E-2,-1.8723914E-1,-8.9305215E-2,-1.7537753E-1,1.822053E-2,-4.870322E-2,-1.7993452E-1,-1.8550336E-1,-7.59766E-2,8.164205E-2,-9.9257134E-2,9.22247E-2,1.0357934E-2,-5.2626766E-2,7.44798E-2,-2.0773968E-2,3.2259196E-2,-2.0773968E-2,-1.7025836E-1],"categories":[],"categories_nodes":[],"categories_segments":[],"categories_sizes":[],"default_left":[0,0,0,0,0,0,0,0,0,0,0,0,0,0,0,0,0,0,0,0,0,0,0,0,0,0,0,0,0,0,0,0,0,0,0,0,0,0,0,0,0,0,0,0,0,0,0,0,0,0,0,0,0,0,0,0,0,0,0,0,0,0,0,0,0,0,0,0,0,0,0,0,0,0,0,0,0,0,0,0,0,0,0,0,0,0,0,0,0,0,0,0,0,0,0,0,0,0,0,0,0,0,0,0,0,0,0,0,0,0,0,0,0,0,0,0,0,0,0,0,0,0,0,0,0,0,0,0,0,0,0,0,0,0,0,0,0,0,0,0,0,0,0,0,0,0,0,0,0,0,0,0,0,0,0,0,0,0,0,0,0,0,0,0,0,0,0,0,0,0,0,0,0,0,0,0,0,0,0,0,0,0,0,0,0,0,0,0,0,0,0,0,0,0,0,0,0,0,0,0,0,0,0,0,0,0,0,0,0,0,0,0,0,0,0,0,0,0,0,0,0,0,0],"id":0,"left_children":[1,3,5,7,9,11,13,15,17,19,21,23,25,27,29,-1,-1,31,-1,33,-1,35,37,39,41,43,-1,45,47,-1,-1,-1,49,51,53,55,57,59,-1,61,63,65,67,69,71,73,75,77,79,-1,-1,81,83,85,87,89,-1,91,-1,93,95,97,-1,99,101,103,105,107,109,111,113,-1,-1,115,-1,117,119,-1,121,123,125,127,129,131,-1,133,135,137,-1,-1,-1,139,141,-1,-1,143,-1,-1,145,147,-1,149,151,-1,153,155,-1,-1,-1,-1,-1,157,159,161,163,-1,-1,-1,-1,-1,-1,165,-1,167,169,171,173,-1,-1,175,177,179,181,-1,183,185,187,-1,-1,-1,189,-1,-1,-1,-1,191,193,-1,-1,195,-1,-1,197,199,-1,201,203,205,-1,207,209,211,213,-1,-1,-1,215,217,-1,219,221,-1,-1,-1,-1,-1,-1,-1,-1,-1,-1,-1,-1,-1,-1,-1,-1,-1,-1,-1,-1,-1,-1,-1,-1,-1,-1,-1,-1,-1,-1,-1,-1,-1,-1,-1,-1,-1,-1,-1,-1,-1,-1,-1,-1,-1,-1,-1,-1,-1,-1,-1,-1],"loss_changes":[2.657392E4,7.712619E3,6.553742E3,5.5729736E1,3.1543018E3,2.0084648E3,5.3388003E3,2.9212484E1,1.6927979E1,8.4432227E2,8.344506E2,8.776097E2,1.8871094E2,4.7053613E2,3.3431294E3,0E0,0E0,1.5146484E0,0E0,6.1934766E2,0E0,3.4840726E2,3.434192E1,1.2750549E2,1.9705254E2,3.0852734E2,0E0,6.073584E1,5.125048E2,0E0,0E0,0E0,7.519684E0,2.5845312E2,3.7810306E2,4.5851715E1,1.9617728E2,1.4432983E1,0E0,4.1319885E1,1.3393814E2,1.5378009E2,3.322396E1,1.8977441E2,1.3759228E1,5.079278E1,2.2720703E1,1.0712549E2,2.1551576E2,0E0,0E0,7.9027824E1,1.1664844E2,1.0968588E2,8.288513E0,1.3954773E0,0E0,5.4418793E1,0E0,1.7738651E1,3.2445068E0,4.8071304E1,0E0,3.0716995E1,8.869013E1,5.4299072E1,7.285144E1,6.215973E-1,1.5278721E1,1.4371387E2,2.2059158E2,0E0,0E0,1.6767282E0,0E0,1.2131348E0,2.663697E1,0E0,4.366394E1,1.5864784E2,8.2535706E1,5.6710815E-1,2.0735645E1,1.04953125E2,0E0,3.9739594E1,8.971475E1,1.4891205E0,0E0,0E0,0E0,7.771881E0,5.1605062E0,0E0,0E0,7.1882973E0,0E0,0E0,2.9677032E1,1.5136902E1,0E0,6.82899E1,3.9313927E1,0E0,3.5086823E1,3.202851E1,0E0,0E0,0E0,0E0,0E0,1.6532715E1,2.3447314E2,2.8922302E1,4.9817825E1,0E0,0E0,0E0,0E0,0E0,0E0,9.1345726E1,0E0,6.603852E1,2.8096306E1,1.2010378E1,3.3328766E1,0E0,0E0,1.2540948E1,1.1544418E1,2.3026227E2,4.139258E1,0E0,7.4790955E0,3.080635E1,5.148876E1,0E0,0E0,0E0,1.6525196E1,0E0,0E0,0E0,0E0,9.480207E0,7.426985E0,0E0,0E0,2.4037619E0,0E0,0E0,1.384264E1,6.803406E0,0E0,6.68948E0,1.8013407E1,6.48584E0,0E0,9.461572E1,1.22732315E2,1.9272583E1,1.6142813E1,0E0,0E0,0E0,3.3246565E0,6.284043E1,0E0,1.2452688E0,1.1685471E1,0E0,0E0,0E0,0E0,0E0,0E0,0E0,0E0,0E0,0E0,0E0,0E0,0E0,0E0,0E0,0E0,0E0,0E0,0E0,0E0,0E0,0E0,0E0,0E0,0E0,0E0,0E0,0E0,0E0,0E0,0E0,0E0,0E0,0E0,0E0,0E0,0E0,0E0,0E0,0E0,0E0,0E0,0E0,0E0,0E0,0E0,0E0,0E0,0E0,0E0,0E0,0E0],"parents":[2147483647,0,0,1,1,2,2,3,3,4,4,5,5,6,6,7,7,8,8,9,9,10,10,11,11,12,12,13,13,14,14,17,17,19,19,21,21,22,22,23,23,24,24,25,25,27,27,28,28,32,32,33,33,34,34,35,35,36,36,37,37,39,39,40,40,41,41,42,42,43,43,44,44,45,45,46,46,47,47,48,48,51,51,52,52,53,53,54,54,55,55,57,57,59,59,60,60,61,61,63,63,64,64,65,65,66,66,67,67,68,68,69,69,70,70,73,73,75,75,76,76,78,78,79,79,80,80,81,81,82,82,83,83,85,85,86,86,87,87,91,91,92,92,95,95,98,98,99,99,101,101,102,102,104,104,105,105,111,111,112,112,113,113,114,114,121,121,123,123,124,124,125,125,126,126,129,129,130,130,131,131,132,132,134,134,135,135,136,136,140,140,145,145,146,146,149,149,152,152,153,153,155,155,156,156,157,157,159,159,160,160,161,161,162,162,166,166,167,167,169,169,170,170],"right_children":[2,4,6,8,10,12,14,16,18,20,22,24,26,28,30,-1,-1,32,-1,34,-1,36,38,40,42,44,-1,46,48,-1,-1,-1,50,52,54,56,58,60,-1,62,64,66,68,70,72,74,76,78,80,-1,-1,82,84,86,88,90,-1,92,-1,94,96,98,-1,100,102,104,106,108,110,112,114,-1,-1,116,-1,118,120,-1,122,124,126,128,130,132,-1,134,136,138,-1,-1,-1,140,142,-1,-1,144,-1,-1,146,148,-1,150,152,-1,154,156,-1,-1,-1,-1,-1,158,160,162,164,-1,-1,-1,-1,-1,-1,166,-1,168,170,172,174,-1,-1,176,178,180,182,-1,184,186,188,-1,-1,-1,190,-1,-1,-1,-1,192,194,-1,-1,196,-1,-1,198,200,-1,202,204,206,-1,208,210,212,214,-1,-1,-1,216,218,-1,220,222,-1,-1,-1,-1,-1,-1,-1,-1,-1,-1,-1,-1,-1,-1,-1,-1,-1,-1,-1,-1,-1,-1,-1,-1,-1,-1,-1,-1,-1,-1,-1,-1,-1,-1,-1,-1,-1,-1,-1,-1,-1,-1,-1,-1,-1,-1,-1,-1,-1,-1,-1,-1],"split_conditions":[-9.817292E-1,-8.924927E-1,7.954911E-1,-4.219354E-2,-1.1262743E-1,-3.8832685E-1,2.832897E-1,-3.884076E-1,2.1627295E-1,-3.2068036E-2,-1.3542506E-1,-1.3542506E-1,-3.8392588E-1,7.5803703E-1,-3.0876184E-1,8.8404946E-2,-1.4505427E-1,-3.5109788E-1,-2.0773968E-2,1.4710553E0,-1.8622775E-1,-1.7674895E-1,1.9176584E0,-1.7787588E-1,1.8331328E-2,-3.8025928E-1,-1.8991932E-1,-9.774988E-1,-6.897803E-2,1.0587672E-1,-1.8922172E-1,-1.8975054E-1,-3.5025162E-1,-1.9953758E-1,-4.539441E-2,8.795826E-1,-3.2068036E-2,-1.2421525E-1,3.2259196E-2,-3.2078478E-1,-2.5792554E-1,-1.15491085E-1,2.4902971E-1,-2.763047E-2,-7.6404035E-2,1.1391716E0,-2.7710713E-2,1.2334486E0,-5.3842116E-2,-2.9852036E-2,-1.6456603E-1,-1.9240776E-1,-4.091837E-1,-9.950303E-1,-3.465842E-2,-3.7031633E-1,5.571098E-2,-3.833333E-1,-1.7687207E-1,6.7801374E-1,-5.974699E-1,-1.9983438E-1,-1.8623097E-1,9.564995E-1,-2.4558851E-1,-6.921398E-2,-4.0128112E-1,6.9090444E-1,-6.894302E-2,-6.897793E-2,-4.594597E-2,9.812621E-2,-3.800645E-2,-1.6409655E-1,-1.6673651E-1,-8.623397E-1,6.2450353E-2,9.22247E-2,6.0611393E-2,-1.4725345E-1,-1.2266287E0,-6.499631E-1,-3.5247886E-1,-1.02394246E-1,-1.653329E-1,-1.6115992E-1,7.5803703E-1,7.5803703E-1,9.489568E-4,-1.8488419E-1,-8.4113166E-2,-1.4037302E0,-8.066822E-2,-1.6375022E-1,1.0000115E-3,-7.9010345E-2,-1.892408E-1,-1.7930543E-1,9.110941E-1,1.955575E0,1.0000115E-3,-5.112105E-2,-1.7261811E0,-1.4738421E-1,-2.579198E-1,-7.703795E-1,-1.7687207E-1,-1.7886218E-1,-8.4113166E-2,-9.471384E-2,7.389418E-2,-3.7509095E-2,7.5803703E-1,-6.6380054E-2,-1.7889872E-1,2.0741455E-2,8.8404946E-2,-8.96924E-2,-1.8559097E-1,-1.5616359E-1,6.8027005E-2,-1.7248152E-1,-1.8614827E-1,1.8379746E-2,-3.8715762E-1,-9.69315E-2,-3.201855E-1,-1.7838115E-1,-8.4113166E-2,2.0776656E-1,-2.4004649E-1,4.341977E-2,-6.6271015E-2,3.429711E-2,6.339126E-3,-2.7936777E-1,-9.943669E-1,4.4516522E-2,1.0473607E-1,1.04429096E-1,1.432979E-1,-2.0773968E-2,-1.4505427E-1,-2.0773968E-2,-1.5750389E-1,-1.6170816E-1,-2.05471E-1,-1.8534185E-1,-2.0773968E-2,-3.8716012E-1,-1.7944552E-1,-1.4505427E-1,-2.8774813E-1,6.8837327E-1,-9.471384E-2,6.339126E-3,-4.5985648E-1,8.5375607E-1,-2.0773968E-2,-7.406303E-2,-1.3372292E-1,-2.0488173E-1,-2.7563825E-2,-1.4738421E-1,9.8318145E-2,-1.799715E-1,2.2800973E-2,-3.8715148E-1,-1.6195185E-1,-1.3248648E-1,9.5995206E-1,-5.2056126E-2,8.405729E-2,3.2259196E-2,-1.8584104E-1,8.362389E-3,-1.4738421E-1,9.255462E-2,-3.800645E-2,8.938859E-2,-6.720471E-2,1.0480412E-1,4.9644306E-2,-1.855548E-1,-7.3584296E-2,2.979377E-2,-1.2431849E-1,5.8056712E-2,-1.05851494E-1,9.4679214E-2,-5.8150806E-2,-3.800645E-2,8.615015E-2,-2.0773968E-2,-1.5874247E-1,1.0357934E-2,8.556965E-2,9.597799E-2,-3.8123138E-3,1.0269561E-1,1.6314654E-2,1.0000115E-3,9.255462E-2,-1.5874247E-1,3.2259196E-2,-1.8723914E-1,-8.9305215E-2,-1.7537753E-1,1.822053E-2,-4.870322E-2,-1.7993452E-1,-1.8550336E-1,-7.59766E-2,8.164205E-2,-9.9257134E-2,9.22247E-2,1.0357934E-2,-5.2626766E-2,7.44798E-2,-2.0773968E-2,3.2259196E-2,-2.0773968E-2,-1.7025836E-1],"split_indices":[52,100,99,4,0,46,42,46,1,4,1,1,58,2,22,0,0,87,0,157,0,1,1,1,3,60,0,52,15,0,0,0,87,1,70,99,4,1,0,163,21,135,136,72,3,138,69,2,120,0,0,141,84,52,90,40,0,60,0,61,136,141,0,147,95,15,90,1,15,15,35,0,0,0,0,54,20,0,150,8,11,51,87,63,0,16,2,2,0,0,0,80,0,0,0,17,0,0,147,155,0,4,55,0,21,54,0,0,0,0,0,35,2,33,141,0,0,0,0,0,0,41,0,89,58,141,24,0,0,99,94,159,1,0,110,124,52,0,0,0,2,0,0,0,0,105,1,0,0,58,0,0,91,2,0,110,84,102,0,36,8,23,72,0,0,0,1,64,0,0,99,0,0,0,0,0,0,0,0,0,0,0,0,0,0,0,0,0,0,0,0,0,0,0,0,0,0,0,0,0,0,0,0,0,0,0,0,0,0,0,0,0,0,0,0,0,0,0,0,0,0,0,0],"split_type":[0,0,0,0,0,0,0,0,0,0,0,0,0,0,0,0,0,0,0,0,0,0,0,0,0,0,0,0,0,0,0,0,0,0,0,0,0,0,0,0,0,0,0,0,0,0,0,0,0,0,0,0,0,0,0,0,0,0,0,0,0,0,0,0,0,0,0,0,0,0,0,0,0,0,0,0,0,0,0,0,0,0,0,0,0,0,0,0,0,0,0,0,0,0,0,0,0,0,0,0,0,0,0,0,0,0,0,0,0,0,0,0,0,0,0,0,0,0,0,0,0,0,0,0,0,0,0,0,0,0,0,0,0,0,0,0,0,0,0,0,0,0,0,0,0,0,0,0,0,0,0,0,0,0,0,0,0,0,0,0,0,0,0,0,0,0,0,0,0,0,0,0,0,0,0,0,0,0,0,0,0,0,0,0,0,0,0,0,0,0,0,0,0,0,0,0,0,0,0,0,0,0,0,0,0,0,0,0,0,0,0,0,0,0,0,0,0,0,0,0,0,0,0],"sum_hessian":[1.6139294E4,9.572981E3,6.566312E3,5.047455E2,9.068236E3,4.0764534E3,2.489859E3,8.253125E0,4.964924E2,8.648929E3,4.193071E2,5.357087E2,3.5407449E3,1.0044337E3,1.485425E3,5.036028E0,3.2170973E0,4.9343497E2,3.057432E0,8.601361E3,4.7567078E1,1.8701584E2,2.3229126E2,2.5990207E2,2.7580658E2,1.578855E3,1.9618899E3,5.593175E2,4.4511618E2,1.2799905E3,2.0543463E2,4.8371353E2,9.721419E0,8.357975E3,2.4338736E2,4.2112476E1,1.4490337E2,2.2908386E2,3.207392E0,1.470986E2,1.1280346E2,2.487903E2,2.701629E1,1.5541246E3,2.473026E1,1.5596785E1,5.437207E2,2.0582628E2,2.3928992E2,3.2872245E0,6.4341946E0,4.2213913E1,8.315761E3,1.4983139E2,9.355598E1,3.829554E1,3.8169374E0,1.315754E2,1.3327974E1,1.1400095E1,2.1768378E2,3.5958794E1,1.1113981E2,4.685829E1,6.594517E1,2.1002328E2,3.876702E1,1.8992958E1,8.023333E0,1.461284E3,9.2840614E1,2.1213243E1,3.5170174E0,8.473212E0,7.1235723E0,5.355377E2,8.182998E0,6.714704E0,1.9911157E2,1.819604E2,5.732951E1,1.830358E1,2.3910332E1,8.309097E3,6.663987E0,4.9615803E1,1.0021558E2,8.965921E1,3.89677E0,3.5158276E1,3.1372645E0,1.2530086E2,6.274529E0,6.2044015E0,5.195693E0,7.8830776E0,2.0980069E2,1.654507E1,1.9413723E1,4.1662598E1,5.195693E0,2.463853E1,4.1306637E1,3.4468899E0,2.0657639E2,2.5439049E1,1.3327974E1,1.5855693E1,3.1372645E0,3.59685E0,4.4264827E0,8.4368E2,6.1760406E2,5.871797E1,3.4122643E1,3.4371846E0,5.036028E0,3.3670573E0,5.3217065E2,4.595853E0,3.5871446E0,2.8075716E1,1.7103586E2,1.5157706E2,3.0383347E1,1.09211E1,4.640841E1,1.5166315E1,3.1372645E0,8.41279E0,1.5497542E1,3.192731E2,7.989823E3,4.2765226E0,4.533928E1,4.6289757E1,5.3925823E1,4.04673E0,8.561248E1,1.1270109E2,1.2599775E1,3.057432E0,3.2170973E0,3.057432E0,4.825646E0,1.1300852E1,8.11287E0,3.8605167E1,3.057432E0,7.8636675E0,1.6774864E1,3.2170973E0,3.8089542E1,2.0297954E2,3.59685E0,1.7176218E1,8.262831E0,8.4062256E2,3.057432E0,4.2768735E2,1.8991673E2,5.1533978E1,7.1839943E0,3.4468899E0,3.0675753E1,1.7694035E1,1.0381681E1,1.4583224E2,5.7448163E0,6.264824E0,2.4118523E1,3.9766026E0,6.9444966E0,3.207392E0,4.320102E1,4.9659004E0,3.4468899E0,1.1980525E1,3.5170174E0,2.681868E2,5.108629E1,7.923697E3,6.6126434E1,4.044351E1,4.895773E0,6.6445765E0,3.964518E1,4.3824654E1,1.01011715E1,8.39338E0,4.206395E0,3.5170174E0,7.7838345E0,3.057432E0,5.0554385E0,3.6669774E0,4.19669E0,3.0066208E1,8.023333E0,1.9824344E2,4.736108E0,5.195693E0,1.1980525E1,5.0554385E0,3.207392E0,8.348076E2,5.814944E0,4.1584708E2,1.184027E1,1.4794452E2,4.197222E1,3.998392E1,1.1550055E1,3.357352E0,3.8266425E0,6.714704E0,3.6669774E0,2.0262766E1,1.2556947E2,3.057432E0,3.207392E0,3.057432E0,2.1061092E1],"tree_param":{"num_deleted":"0","num_feature":"165","num_nodes":"223","size_leaf_vector":"1"}},{"base_weights":[1.2691324E-2,1.0406188E0,-1.3850833E0,-2.4177814E0,1.2482737E0,-2.057029E0,-2.3208489E-1,-2.1228465E-1,-2.448106E0,1.3761461E0,-1.288144E0,-5.131613E-1,-2.3041592E0,-1.7985089E0,9.121808E-1,-1.3127896E-1,8.25455E-2,-1.6787061E-1,2.0675117E-3,1.3995074E0,-1.6604802E-1,1.3291319E-1,-2.3679004E0,-1.7104812E0,5.4002845E-1,-2.0804033E0,-1.6881953E-1,-2.3503737E0,-1.0816046E0,1.0207535E-1,-1.6830307E-1,1.4418454E0,-8.984732E-2,-1.65681E-1,7.530451E-1,-3.2041862E-3,-2.4224994E0,-2.1603408E0,-9.4006777E-1,8.66721E-1,-1.8028023E0,-2.1305776E0,1.1451395E0,8.336755E-2,-2.3773458E0,-2.133912E0,-1.3499881E-1,-6.9732904E-1,1.4537095E0,-9.919562E-1,1.3966168E0,1.2211883E0,-1.6139847E-1,-1.1875676E0,-2.465696E0,-1.343206E0,-2.3968859E0,-1.668651E-1,1.4231858E-2,1.0815064E0,-1.2095578E0,-1.6803935E-1,9.781551E-1,-2.205263E0,-8.7249696E-1,9.5261484E-2,-3.226136E-2,-2.4007497E0,-7.020566E-1,8.8987805E-2,-2.2463117E0,3.4730777E-1,-1.6562723E0,-2.202326E0,4.280032E-1,-9.822174E-1,1.458907E0,-2.137117E0,-3.2954898E-1,9.9592194E-2,-2.420294E-2,1.3451892E0,-1.4337607E-1,-1.4420728E-1,4.6600454E-2,-7.6083556E-2,-1.687708E-1,-1.8552828E0,7.063992E-1,-1.6654794E-1,-1.3262504E0,1.3012886E0,-1.06613E0,-1.6874331E0,1.1964539E0,8.486605E-2,-1.8208866E0,8.343198E-2,2.9695433E-2,-2.4379044E0,-1.8790052E0,5.776913E-1,-2.3228247E0,-1.599572E0,-2.4365013E0,8.848809E-2,-1.4154664E-1,-2.571409E-1,-2.4315755E0,7.397736E-1,-2.043488E0,-2.3978763E0,-5.904484E-1,-1.606425E-1,-6.860029E-2,9.113558E-1,-9.334083E-1,-1.5335786E0,6.5085754E-2,1.4617866E0,-1.4609963E-1,-4.214156E-1,-1.6661309E-1,-1.31444E0,5.629067E-1,1.4118202E0,-4.1108705E-2,-2.1177268E0,3.2339085E-2,8.61469E-2,-1.9277789E-2,-1.3613914E-1,-1.2637405E-2,9.6908115E-2,1.6917441E-2,-1.4924905E-1,2.405824E-2,-1.5246175E-1,-1.8489527E-2,-5.4783505E-1,1.3155525E0,-2.2340984E0,3.070044E-2,-2.4450765E0,-1.9619621E-2,-2.2467515E0,-1.0238388E0,-1.0542294E0,9.4964586E-2,-1.6788994E-1,-1.6562724E-2,5.5550945E-1,-2.2747161E0,-2.4721813E0,-1.7903749E0,8.982247E-1,-1.4916399E-1,-1.2867483E0,-1.6765878E-1,9.6273714E-1,-9.275736E-1,-1.6464412E-1,-2.8389176E-2,-7.853624E-2,-1.6932589E-1,3.5250652E-1,-1.5247387E-1,-2.7772862E-2,8.144964E-2,2.0403348E-2,-1.4033915E-1,-1.6627637E-1,-5.219693E-3,9.998104E-2,3.0786714E-2,4.6445858E-2,-9.757469E-2,-1.4598578E-1,-3.0306714E-2,5.446704E-2,-1.4607202E-1,9.9737644E-2,3.4852237E-2,-1.6559407E-1,-5.0393544E-2,-1.4162034E-1,5.2259985E-2,-1.4894441E-1,3.723731E-2,9.82217E-2,4.1765183E-2,-1.6254832E-1,-7.763632E-2,-1.668452E-1,-8.238268E-2,-1.5749986E-1,9.924959E-3,-3.7675504E-2,-1.710378E-1,5.6658365E-2,-1.5537883E-1,-1.822312E-2,8.1785284E-2,-6.8374105E-2,-1.6525209E-1,-7.179951E-2,-1.686821E-1,-1.6329466E-1,4.641251E-2,8.871842E-2,-1.9249897E-2,-1.8849706E-2,-1.3174544E-1,7.2429694E-2,-1.0896802E-1,4.1109445E-3,-1.5934968E-1,-4.655424E-2,8.089616E-2],"categories":[],"categories_nodes":[],"categories_segments":[],"categories_sizes":[],"default_left":[0,0,0,0,0,0,0,0,0,0,0,0,0,0,0,0,0,0,0,0,0,0,0,0,0,0,0,0,0,0,0,0,0,0,0,0,0,0,0,0,0,0,0,0,0,0,0,0,0,0,0,0,0,0,0,0,0,0,0,0,0,0,0,0,0,0,0,0,0,0,0,0,0,0,0,0,0,0,0,0,0,0,0,0,0,0,0,0,0,0,0,0,0,0,0,0,0,0,0,0,0,0,0,0,0,0,0,0,0,0,0,0,0,0,0,0,0,0,0,0,0,0,0,0,0,0,0,0,0,0,0,0,0,0,0,0,0,0,0,0,0,0,0,0,0,0,0,0,0,0,0,0,0,0,0,0,0,0,0,0,0,0,0,0,0,0,0,0,0,0,0,0,0,0,0,0,0,0,0,0,0,0,0,0,0,0,0,0,0,0,0,0,0,0,0,0,0,0,0,0,0,0,0,0,0,0,0,0,0,0,0,0,0,0,0,0,0,0,0],"id":1,"left_children":[1,3,5,7,9,11,13,15,17,19,21,23,25,27,29,-1,-1,-1,-1,31,-1,33,35,37,39,41,-1,43,45,-1,-1,47,49,-1,51,-1,53,55,57,59,61,63,65,-1,67,69,71,73,75,77,79,81,-1,83,85,87,89,-1,91,93,95,-1,97,99,101,-1,-1,103,105,-1,107,109,111,113,115,117,119,121,123,-1,-1,125,-1,-1,-1,-1,-1,127,129,-1,131,133,135,137,139,-1,141,-1,-1,143,145,147,149,151,153,-1,-1,155,157,159,161,163,165,-1,-1,167,169,171,-1,173,-1,175,-1,177,179,181,-1,183,-1,-1,-1,-1,-1,-1,-1,-1,185,-1,-1,187,189,191,-1,193,-1,195,197,199,-1,-1,-1,201,203,205,207,209,-1,211,-1,213,215,-1,-1,-1,-1,217,-1,-1,-1,-1,-1,-1,-1,-1,-1,-1,-1,-1,-1,-1,-1,-1,-1,-1,-1,-1,-1,-1,-1,-1,-1,-1,-1,-1,-1,-1,-1,-1,-1,-1,-1,-1,-1,-1,-1,-1,-1,-1,-1,-1,-1,-1,-1,-1,-1,-1,-1,-1,-1],"loss_changes":[2.2990604E4,6.6246865E3,5.2529023E3,3.443286E1,2.823122E3,1.633293E3,4.478699E3,2.2369682E1,2.4412354E1,7.4181055E2,6.4171436E2,7.479468E2,1.410332E2,4.1474585E2,2.878521E3,0E0,0E0,0E0,0E0,5.1921094E2,0E0,2.9074783E2,2.9991333E1,9.4134705E1,2.4337161E2,2.6733252E2,0E0,6.030591E1,4.5854468E2,0E0,0E0,2.0416406E2,3.077739E2,0E0,2.1781216E2,0E0,9.453491E0,3.0492004E1,1.5021657E2,1.2525821E2,7.471638E1,1.4954443E2,1.1280048E1,0E0,2.1486816E1,8.72959E1,1.7927727E2,7.685955E1,1.022207E2,1.0760077E2,1.0711029E1,5.5837097E1,0E0,1.8504078E1,1.6474609E0,4.479239E1,4.045349E0,0E0,9.148509E1,8.235806E1,4.211563E1,0E0,5.742831E-1,1.1086914E2,1.9482013E2,0E0,0E0,1.2785645E1,2.9078972E1,0E0,7.733008E1,1.7580511E2,4.506302E1,1.2825394E0,1.8278868E1,2.0224194E1,8.5634766E1,2.6839157E1,8.128584E1,0E0,0E0,1.7013641E1,0E0,0E0,0E0,0E0,0E0,2.1449455E1,5.34729E0,0E0,5.9797277E0,3.5311127E0,4.4022545E1,7.5962753E0,5.118936E1,0E0,2.1333809E1,0E0,0E0,1.2931641E1,1.981831E2,6.3941364E1,1.32901E1,4.1700462E1,8.383789E0,0E0,0E0,4.4763943E1,4.0179443E0,6.0483765E1,1.5179985E1,1.0008087E0,4.0403374E1,0E0,0E0,8.047579E0,1.0969664E1,1.8437069E1,0E0,6.0328125E1,0E0,1.128751E1,0E0,3.0723076E1,3.3118393E1,5.1083527E0,0E0,1.1348602E1,0E0,0E0,0E0,0E0,0E0,0E0,0E0,0E0,3.1637907E1,0E0,0E0,3.03735E1,1.9565338E1,4.030609E-1,0E0,4.658203E0,0E0,7.271973E1,1.3417093E2,3.9468147E1,0E0,0E0,0E0,4.278412E0,1.7350616E0,2.5080566E0,5.0923676E1,6.4512568E0,0E0,4.333909E0,0E0,3.8720673E1,2.7273046E1,0E0,0E0,0E0,0E0,1.5608855E1,0E0,0E0,0E0,0E0,0E0,0E0,0E0,0E0,0E0,0E0,0E0,0E0,0E0,0E0,0E0,0E0,0E0,0E0,0E0,0E0,0E0,0E0,0E0,0E0,0E0,0E0,0E0,0E0,0E0,0E0,0E0,0E0,0E0,0E0,0E0,0E0,0E0,0E0,0E0,0E0,0E0,0E0,0E0,0E0,0E0,0E0,0E0,0E0,0E0,0E0,0E0,0E0,0E0],"parents":[2147483647,0,0,1,1,2,2,3,3,4,4,5,5,6,6,7,7,8,8,9,9,10,10,11,11,12,12,13,13,14,14,19,19,21,21,22,22,23,23,24,24,25,25,27,27,28,28,31,31,32,32,34,34,36,36,37,37,38,38,39,39,40,40,41,41,42,42,44,44,45,45,46,46,47,47,48,48,49,49,50,50,51,51,53,53,54,54,55,55,56,56,58,58,59,59,60,60,62,62,63,63,64,64,67,67,68,68,70,70,71,71,72,72,73,73,74,74,75,75,76,76,77,77,78,78,81,81,87,87,88,88,90,90,91,91,92,92,93,93,94,94,96,96,99,99,100,100,101,101,102,102,103,103,104,104,107,107,108,108,109,109,110,110,111,111,112,112,115,115,116,116,117,117,119,119,121,121,123,123,124,124,125,125,127,127,136,136,139,139,140,140,141,141,143,143,145,145,146,146,147,147,151,151,152,152,153,153,154,154,155,155,157,157,159,159,160,160,165,165],"right_children":[2,4,6,8,10,12,14,16,18,20,22,24,26,28,30,-1,-1,-1,-1,32,-1,34,36,38,40,42,-1,44,46,-1,-1,48,50,-1,52,-1,54,56,58,60,62,64,66,-1,68,70,72,74,76,78,80,82,-1,84,86,88,90,-1,92,94,96,-1,98,100,102,-1,-1,104,106,-1,108,110,112,114,116,118,120,122,124,-1,-1,126,-1,-1,-1,-1,-1,128,130,-1,132,134,136,138,140,-1,142,-1,-1,144,146,148,150,152,154,-1,-1,156,158,160,162,164,166,-1,-1,168,170,172,-1,174,-1,176,-1,178,180,182,-1,184,-1,-1,-1,-1,-1,-1,-1,-1,186,-1,-1,188,190,192,-1,194,-1,196,198,200,-1,-1,-1,202,204,206,208,210,-1,212,-1,214,216,-1,-1,-1,-1,218,-1,-1,-1,-1,-1,-1,-1,-1,-1,-1,-1,-1,-1,-1,-1,-1,-1,-1,-1,-1,-1,-1,-1,-1,-1,-1,-1,-1,-1,-1,-1,-1,-1,-1,-1,-1,-1,-1,-1,-1,-1,-1,-1,-1,-1,-1,-1,-1,-1,-1,-1,-1,-1],"split_conditions":[-9.845538E-1,-8.924927E-1,7.954911E-1,-4.219354E-2,-1.102892E-1,-3.8832027E-1,2.9396942E-1,-1.2884001E-1,1.6918229E-1,-3.2068036E-2,-1.2760189E-1,-1.5841801E-1,-3.8392588E-1,7.5803703E-1,-3.0876184E-1,-1.3127896E-1,8.25455E-2,-1.6787061E-1,2.0675117E-3,1.4701542E0,-1.6604802E-1,-1.8013623E-1,-3.733266E-1,-1.7787588E-1,-5.482026E-2,-3.8025928E-1,-1.6881953E-1,-3.8842556E-1,-6.897803E-2,1.0207535E-1,-1.6830307E-1,-1.9953758E-1,-4.5389052E-2,-1.65681E-1,-3.2068036E-2,-3.2041862E-3,-3.871582E-1,-3.2078478E-1,-1.2874043E-1,-2.915532E-1,8.607545E-1,-2.763047E-2,-1.8553704E-1,8.336755E-2,-6.9224946E-3,1.2334486E0,-5.9191215E-1,-1.9240776E-1,-1.5663439E0,-9.950303E-1,2.1711748E-2,2.086828E-1,-1.6139847E-1,1.0590832E0,-8.061961E-1,7.5803703E-1,1.2782429E-1,-1.668651E-1,-4.038635E-1,-2.579228E-1,-8.5601014E-1,-1.6803935E-1,-1.3040961E-1,-6.897793E-2,1.4418687E-1,9.5261484E-2,-3.226136E-2,-8.453557E-1,1.0350376E0,8.8987805E-2,-2.3675878E-1,-7.432878E-2,-4.1424666E-2,-2.2939043E-1,-3.1346342E-1,-4.539249E-2,-4.091837E-1,-1.0239875E-1,7.5803703E-1,9.9592194E-2,-2.420294E-2,-3.833333E-1,-1.4337607E-1,-1.4420728E-1,4.6600454E-2,-7.6083556E-2,-1.687708E-1,8.026946E-1,-3.5309196E-1,-1.6654794E-1,-1.285633E-1,-1.3810374E-1,-1.3658608E-1,5.9472565E-2,-6.517516E-1,8.486605E-2,-1.01716004E-1,8.343198E-2,2.9695433E-2,-3.637918E-2,7.5803703E-1,-7.813201E-2,5.9745985E-1,-5.112105E-2,-6.661406E-2,8.848809E-2,-1.4154664E-1,-2.4270214E-1,-2.059456E0,7.889451E-1,-1.3468911E-1,4.4321987E-1,-3.8618076E-1,-1.606425E-1,-6.860029E-2,-3.828078E-1,-1.023986E-1,-1.357632E-1,6.5085754E-2,-2.7954012E-2,-1.4609963E-1,-1.5735485E-1,-1.6661309E-1,-1.1531186E-1,-1.1240355E-1,-1.4930126E-1,-4.1108705E-2,9.244337E-1,3.2339085E-2,8.61469E-2,-1.9277789E-2,-1.3613914E-1,-1.2637405E-2,9.6908115E-2,1.6917441E-2,-1.4924905E-1,-6.516965E-1,-1.5246175E-1,-1.8489527E-2,-1.3587043E-1,-1.0510231E-1,9.760448E-2,3.070044E-2,8.5375607E-1,-1.9619621E-2,-7.406303E-2,-5.482026E-2,-1.1604923E-1,9.4964586E-2,-1.6788994E-1,-1.6562724E-2,-2.5792465E-1,5.169096E-1,8.5325694E-1,-1.0050202E-1,7.051796E-1,-1.4916399E-1,-6.516965E-1,-1.6765878E-1,-2.4882346E-1,-1.0584553E0,-1.6464412E-1,-2.8389176E-2,-7.853624E-2,-1.6932589E-1,-3.1751606E-1,-1.5247387E-1,-2.7772862E-2,8.144964E-2,2.0403348E-2,-1.4033915E-1,-1.6627637E-1,-5.219693E-3,9.998104E-2,3.0786714E-2,4.6445858E-2,-9.757469E-2,-1.4598578E-1,-3.0306714E-2,5.446704E-2,-1.4607202E-1,9.9737644E-2,3.4852237E-2,-1.6559407E-1,-5.0393544E-2,-1.4162034E-1,5.2259985E-2,-1.4894441E-1,3.723731E-2,9.82217E-2,4.1765183E-2,-1.6254832E-1,-7.763632E-2,-1.668452E-1,-8.238268E-2,-1.5749986E-1,9.924959E-3,-3.7675504E-2,-1.710378E-1,5.6658365E-2,-1.5537883E-1,-1.822312E-2,8.1785284E-2,-6.8374105E-2,-1.6525209E-1,-7.179951E-2,-1.686821E-1,-1.6329466E-1,4.641251E-2,8.871842E-2,-1.9249897E-2,-1.8849706E-2,-1.3174544E-1,7.2429694E-2,-1.0896802E-1,4.1109445E-3,-1.5934968E-1,-4.655424E-2,8.089616E-2],"split_indices":[52,100,99,4,0,46,48,7,1,4,1,1,58,2,22,0,0,0,0,158,0,1,59,1,160,60,0,46,15,0,0,1,70,0,4,0,58,163,7,88,143,72,41,0,101,2,51,141,25,52,159,158,0,19,116,2,53,0,143,27,136,0,150,15,88,0,0,54,135,0,126,9,92,94,22,70,84,57,2,0,0,60,0,0,0,0,0,119,42,0,7,10,101,141,51,0,57,0,0,35,2,34,99,4,33,0,0,143,73,12,101,136,58,0,0,154,57,101,0,161,0,105,0,131,105,1,0,111,0,0,0,0,0,0,0,0,51,0,0,101,102,1,0,102,0,36,160,162,0,0,0,21,114,100,75,114,0,51,0,124,145,0,0,0,0,39,0,0,0,0,0,0,0,0,0,0,0,0,0,0,0,0,0,0,0,0,0,0,0,0,0,0,0,0,0,0,0,0,0,0,0,0,0,0,0,0,0,0,0,0,0,0,0,0,0,0,0,0,0],"split_type":[0,0,0,0,0,0,0,0,0,0,0,0,0,0,0,0,0,0,0,0,0,0,0,0,0,0,0,0,0,0,0,0,0,0,0,0,0,0,0,0,0,0,0,0,0,0,0,0,0,0,0,0,0,0,0,0,0,0,0,0,0,0,0,0,0,0,0,0,0,0,0,0,0,0,0,0,0,0,0,0,0,0,0,0,0,0,0,0,0,0,0,0,0,0,0,0,0,0,0,0,0,0,0,0,0,0,0,0,0,0,0,0,0,0,0,0,0,0,0,0,0,0,0,0,0,0,0,0,0,0,0,0,0,0,0,0,0,0,0,0,0,0,0,0,0,0,0,0,0,0,0,0,0,0,0,0,0,0,0,0,0,0,0,0,0,0,0,0,0,0,0,0,0,0,0,0,0,0,0,0,0,0,0,0,0,0,0,0,0,0,0,0,0,0,0,0,0,0,0,0,0,0,0,0,0,0,0,0,0,0,0,0,0,0,0,0,0,0,0],"sum_hessian":[1.5999129E4,9.219406E3,6.7797227E3,5.216083E2,8.697799E3,4.2829287E3,2.496794E3,7.1831098E0,5.144252E2,8.280784E3,4.1701456E2,5.9140295E2,3.691526E3,1.0537323E3,1.4430615E3,3.0978644E0,4.0852456E0,5.105057E2,3.9194636E0,8.231034E3,4.9749752E1,1.8042966E2,2.365849E2,2.764717E2,3.1493124E2,1.6357648E3,2.055761E3,5.941125E2,4.596198E2,1.2300023E3,2.1305925E2,8.0035483E3,2.2748572E2,3.4527782E1,1.4590187E2,5.480747E0,2.3110416E2,1.7341002E2,1.0306169E2,2.7694336E2,3.798789E1,1.6110441E3,2.4720755E1,4.115405E0,5.8999713E2,2.1706369E2,2.425561E2,4.3825203E1,7.959723E3,1.4177666E2,8.570907E1,1.2742291E2,1.8478962E1,8.77352E0,2.2233063E2,4.0428814E1,1.329812E2,3.9265877E1,6.379582E1,2.5141432E2,2.5529018E1,3.0730976E1,7.256914E0,1.5200538E3,9.0990204E1,2.1475584E1,3.2451706E0,5.814413E2,8.555803E0,6.528277E0,2.1053542E2,1.8475336E2,5.7802753E1,1.8340258E1,2.5484945E1,1.6547165E1,7.943176E3,5.114008E1,9.063657E1,8.270825E1,3.00082E0,1.2342061E2,4.002308E0,5.7701473E0,3.003373E0,3.2294636E0,2.1910117E2,3.2423008E1,8.005807E0,1.257257E2,7.2555E0,2.9019644E1,3.4776173E1,9.475745E0,2.4193858E2,4.879398E0,2.064962E1,4.1111765E0,3.1457376E0,8.8355426E2,6.364996E2,4.5798145E1,4.519206E1,2.6791822E1,5.546495E2,3.510898E0,5.0449047E0,1.8141273E1,1.9239413E2,1.592946E2,2.5458744E1,3.3348774E1,2.445398E1,1.532738E1,3.0128777E0,1.9051516E1,6.433429E0,1.3046032E1,3.5011337E0,7.937432E3,5.7437186E0,8.221008E0,4.291907E1,4.286216E1,4.777441E1,1.1960803E2,3.8125744E0,2.922348E1,3.1995254E0,4.935546E0,3.0702612E0,4.085096E0,3.170404E0,2.56686E1,3.3510432E0,1.6599165E1,1.817701E1,6.3941274E0,3.0816183E0,1.5233439E1,2.2670514E2,1.7486214E1,3.1634064E0,8.80479E2,3.0752375E0,4.439576E2,1.9254196E2,1.5194815E1,3.060333E1,4.207898E1,3.1130784E0,6.4334016E0,2.0358421E1,5.2294556E2,3.1703909E1,1.169467E1,6.4466043E0,6.4265385E0,1.859676E2,1.4087843E2,1.841617E1,2.0279074E1,5.1796703E0,3.1990957E0,3.014968E1,1.6062971E1,8.391007E0,3.3144245E0,1.5737092E1,3.4259305E0,3.0074983E0,7.6127377E0,5.4332943E0,7.877562E3,5.9870174E1,4.0889153E0,4.1320925E0,2.1158617E1,2.1703543E1,4.457105E1,3.203362E0,1.1224097E2,7.3670635E0,2.3145546E1,6.0779347E0,4.27675E0,1.390026E1,5.6969104E0,9.536529E0,1.9084067E2,3.5864483E1,1.4278208E1,3.208006E0,8.745256E2,5.953465E0,4.3172223E2,1.2235373E1,1.4740096E2,4.5141014E1,6.121504E0,9.07331E0,3.0872579E0,3.3461437E0,3.015296E0,1.7343124E1,3.2809162E0,5.196647E2,2.5457382E1,6.246526E0,8.627663E0,3.0670068E0,3.0740397E0,3.3524988E0,1.3606438E2,4.8140564E0,1.1405903E1,7.0102673E0,7.253915E0,8.809057E0],"tree_param":{"num_deleted":"0","num_feature":"165","num_nodes":"219","size_leaf_vector":"1"}},{"base_weights":[1.6514605E-2,9.984927E-1,-1.2752079E0,-2.1954665E0,1.201931E0,-1.8718832E0,-2.2188477E-1,-2.2279897E0,-2.523972E-1,1.3340046E0,-1.0795907E0,-4.2683643E-1,-2.0895326E0,-1.6417434E0,8.748876E-1,-2.2320336E-2,-1.527629E-1,8.594864E-2,-1.3351122E-1,1.3535066E0,-1.5041229E-1,1.7984118E-1,-2.188066E0,-1.608553E0,5.981695E-1,-1.8876232E0,-1.5314642E-1,-9.5843637E-1,-2.120126E0,9.876412E-2,-1.5273754E-1,1.3945814E0,-4.8617538E-2,-1.5305611E-1,7.587366E-1,-1.1549866E0,-2.2312925E0,-2.008707E0,-8.9668477E-1,8.691798E-1,-1.6246071E0,-1.9312631E0,1.0643201E0,-1.8619297E0,-2.0908567E-1,-1.8742107E0,-1.528914E-1,2.2635965E-1,1.4167827E0,-8.717937E-1,1.3492825E0,1.1554759E0,-1.4759493E-1,7.992296E-2,-1.4793716E-1,-1.3297813E0,-1.5344262E-1,-1.3044829E0,-1.4966232E-1,-1.5122804E-1,-1.9402318E-2,1.0719241E0,-1.1113055E0,-1.518083E-1,7.767173E-1,-1.972598E0,4.597791E-1,9.200272E-2,-3.8219105E-2,-1.0441282E-1,-2.0513532E0,-1.6414663E0,4.653443E-1,-2.097039E0,-1.1173104E0,-2.155566E0,5.8236593E-1,1.4214356E0,-1.4602027E0,-1.6435095E0,-1.5166856E-1,9.548229E-2,6.868016E-3,1.2958472E0,-1.2425446E-1,-1.3396284E-1,-1.2660407E-2,-1.5042004E-1,-2.3163669E-1,1.2406349E0,-1.0643406E0,1.1695241E0,-1.4512806E-1,2.7946305E-2,-1.522726E-1,7.716565E-2,1.7127903E-2,-2.1595054E0,-1.5621359E0,9.438155E-2,-1.5007819E-1,8.400778E-1,-1.1217713E-1,-2.1102633E0,-6.638982E-1,-2.0792866E0,2.0079783E-3,8.1705123E-1,-1.79311E0,-2.2035372E0,-2.9096675E-1,8.314923E-2,-1.3771614E0,-6.418971E-2,-1.5832308E-1,1.127624E0,-5.221552E-1,-7.9114306E-1,1.4249939E0,-1.4048654E-1,2.4492163E-2,4.479087E-2,-1.8804939E0,7.7400726E-1,-1.2094395E0,1.3859E0,-1.9870041E-1,6.315296E-1,-1.1241843E-1,9.610989E-2,3.2034903E-3,4.273536E-1,-1.9274477E0,-1.3551588E-1,1.3003541E0,-1.2737738E-1,8.1638825E-1,-2.1656504E0,-1.0868827E-2,-2.0493908E0,-7.5630426E-1,-1.0337305E-2,9.1133E-2,-1.4968602E-1,-1.0472207E0,7.748107E-2,-1.2862565E-1,-4.3920103E-2,-2.1682184E0,-1.0571869E-1,9.916137E-1,1.0214113E0,-8.0249745E-1,-1.5023273E-1,3.622802E-2,-5.8626153E-2,-2.2245E0,-1.2765963E-1,6.925936E-2,-1.4854376E-1,-6.8388605E-1,-7.149617E-2,8.479476E-2,-1.3475658E-1,5.247501E-2,-1.360893E-1,2.0662438E-4,-1.7807605E-2,9.714186E-2,-1.5145665E-1,-5.417758E-2,-3.65862E-2,9.213922E-2,-3.000569E-2,-1.3138369E-1,4.169855E-2,9.6994415E-2,7.1469E-2,-9.94776E-2,8.260071E-2,-3.4865078E-2,-8.067968E-2,7.7284954E-2,-1.4945772E-1,-2.534181E-2,5.4283123E-2,-8.718786E-2,9.148834E-2,-5.120671E-2,-1.7171362E-2,8.796034E-2,-8.416166E-2,-1.4820483E-1,-1.4666352E-1,2.6616117E-2,1.8637426E-2,-9.491612E-2,-1.3129605E-1,6.052303E-2,-1.5168239E-1,-6.655602E-2,9.0932585E-2,1.5372828E-2,7.8726865E-2,-5.0508723E-2,-1.488828E-1,1.02465935E-2,-1.5277627E-1,-6.064334E-2,1.2264886E-2,-1.4426604E-1],"categories":[],"categories_nodes":[],"categories_segments":[],"categories_sizes":[],"default_left":[0,0,0,0,0,0,0,0,0,0,0,0,0,0,0,0,0,0,0,0,0,0,0,0,0,0,0,0,0,0,0,0,0,0,0,0,0,0,0,0,0,0,0,0,0,0,0,0,0,0,0,0,0,0,0,0,0,0,0,0,0,0,0,0,0,0,0,0,0,0,0,0,0,0,0,0,0,0,0,0,0,0,0,0,0,0,0,0,0,0,0,0,0,0,0,0,0,0,0,0,0,0,0,0,0,0,0,0,0,0,0,0,0,0,0,0,0,0,0,0,0,0,0,0,0,0,0,0,0,0,0,0,0,0,0,0,0,0,0,0,0,0,0,0,0,0,0,0,0,0,0,0,0,0,0,0,0,0,0,0,0,0,0,0,0,0,0,0,0,0,0,0,0,0,0,0,0,0,0,0,0,0,0,0,0,0,0,0,0,0,0,0,0,0,0,0,0,0,0,0,0,0,0,0,0,0,0,0,0,0,0],"id":2,"left_children":[1,3,5,7,9,11,13,15,17,19,21,23,25,27,29,-1,-1,-1,-1,31,-1,33,35,37,39,41,-1,43,45,-1,-1,47,49,-1,51,53,55,57,59,61,63,65,67,69,71,73,-1,75,77,79,81,83,-1,-1,-1,85,-1,87,-1,-1,89,91,93,-1,95,97,99,-1,-1,101,103,105,107,109,111,113,115,117,119,121,123,-1,-1,125,-1,-1,-1,-1,127,129,131,133,-1,135,-1,-1,-1,137,139,-1,-1,141,-1,143,145,147,149,151,153,155,157,-1,159,-1,-1,161,163,165,167,-1,-1,-1,169,171,173,175,177,179,-1,-1,-1,181,183,185,187,-1,189,191,-1,193,195,-1,-1,-1,197,-1,-1,-1,199,-1,201,203,205,-1,-1,-1,207,-1,-1,-1,209,-1,-1,-1,-1,-1,-1,-1,-1,-1,-1,-1,-1,-1,-1,-1,-1,-1,-1,-1,-1,-1,-1,-1,-1,-1,-1,-1,-1,-1,-1,-1,-1,-1,-1,-1,-1,-1,-1,-1,-1,-1,-1,-1,-1,-1,-1,-1,-1,-1,-1],"loss_changes":[2.0101262E4,5.8525576E3,4.3010938E3,3.352881E1,2.5520557E3,1.3732324E3,3.8574304E3,1.6530762E1,2.8413843E1,5.56124E2,6.4779614E2,6.9522455E2,1.1934961E2,3.5082837E2,2.5174714E3,0E0,0E0,0E0,0E0,4.5842383E2,0E0,3.082955E2,8.440796E0,7.411456E1,1.867487E2,2.2001562E2,0E0,3.018049E2,1.5575195E1,0E0,0E0,2.0022266E2,2.6293842E2,0E0,2.0788593E2,3.1003626E1,2.0635986E0,1.9951355E1,1.1360605E2,1.1156526E2,5.093479E1,1.6572656E2,1.2596802E1,6.711316E1,2.375548E2,3.5074707E1,0E0,1.2454749E2,1.03646484E2,7.965223E1,5.5680084E0,6.7807816E1,0E0,0E0,0E0,5.8502493E0,0E0,3.707569E1,0E0,0E0,8.006892E1,8.065021E1,3.345616E1,0E0,1.1317468E0,1.2240674E2,7.5111626E1,0E0,0E0,3.1619535E1,1.3516113E1,5.662297E1,1.3445558E2,3.2106384E1,3.3656616E1,1.7740936E0,7.724126E1,6.077246E1,1.476614E1,3.904068E1,7.483888E1,0E0,0E0,2.0451965E1,0E0,0E0,0E0,0E0,2.4120264E1,5.5902977E0,4.361159E1,4.1687195E1,0E0,2.2386787E1,0E0,0E0,0E0,1.3465332E1,2.0128638E2,0E0,0E0,6.9023275E0,0E0,1.4335205E1,2.181275E1,6.523346E0,2.8562403E1,4.899414E1,2.3241325E1,2.6018066E0,2.397039E1,0E0,2.522097E1,0E0,0E0,2.3403572E1,8.2158936E1,1.2302433E1,3.454785E1,0E0,0E0,0E0,2.185756E1,3.1822529E1,1.8894218E1,3.459381E0,1.6359135E1,8.903938E0,0E0,0E0,0E0,1.6203407E1,8.067261E0,2.5681581E1,2.10849E1,0E0,5.6904626E0,1.0294922E1,0E0,8.404614E1,1.2950127E2,0E0,0E0,0E0,2.818403E1,0E0,0E0,0E0,2.0375366E0,0E0,2.6914206E0,3.1879395E1,2.2606369E1,0E0,0E0,0E0,2.3710327E0,0E0,0E0,0E0,3.4091187E1,0E0,0E0,0E0,0E0,0E0,0E0,0E0,0E0,0E0,0E0,0E0,0E0,0E0,0E0,0E0,0E0,0E0,0E0,0E0,0E0,0E0,0E0,0E0,0E0,0E0,0E0,0E0,0E0,0E0,0E0,0E0,0E0,0E0,0E0,0E0,0E0,0E0,0E0,0E0,0E0,0E0,0E0,0E0,0E0,0E0,0E0,0E0,0E0,0E0,0E0],"parents":[2147483647,0,0,1,1,2,2,3,3,4,4,5,5,6,6,7,7,8,8,9,9,10,10,11,11,12,12,13,13,14,14,19,19,21,21,22,22,23,23,24,24,25,25,27,27,28,28,31,31,32,32,34,34,35,35,36,36,37,37,38,38,39,39,40,40,41,41,42,42,43,43,44,44,45,45,47,47,48,48,49,49,50,50,51,51,55,55,57,57,60,60,61,61,62,62,64,64,65,65,66,66,69,69,70,70,71,71,72,72,73,73,74,74,75,75,76,76,77,77,78,78,79,79,80,80,83,83,88,88,89,89,90,90,91,91,93,93,97,97,98,98,101,101,103,103,104,104,105,105,106,106,107,107,108,108,109,109,110,110,112,112,115,115,116,116,117,117,118,118,122,122,123,123,124,124,125,125,126,126,127,127,131,131,132,132,133,133,134,134,136,136,137,137,139,139,140,140,144,144,148,148,150,150,151,151,152,152,156,156,160,160],"right_children":[2,4,6,8,10,12,14,16,18,20,22,24,26,28,30,-1,-1,-1,-1,32,-1,34,36,38,40,42,-1,44,46,-1,-1,48,50,-1,52,54,56,58,60,62,64,66,68,70,72,74,-1,76,78,80,82,84,-1,-1,-1,86,-1,88,-1,-1,90,92,94,-1,96,98,100,-1,-1,102,104,106,108,110,112,114,116,118,120,122,124,-1,-1,126,-1,-1,-1,-1,128,130,132,134,-1,136,-1,-1,-1,138,140,-1,-1,142,-1,144,146,148,150,152,154,156,158,-1,160,-1,-1,162,164,166,168,-1,-1,-1,170,172,174,176,178,180,-1,-1,-1,182,184,186,188,-1,190,192,-1,194,196,-1,-1,-1,198,-1,-1,-1,200,-1,202,204,206,-1,-1,-1,208,-1,-1,-1,210,-1,-1,-1,-1,-1,-1,-1,-1,-1,-1,-1,-1,-1,-1,-1,-1,-1,-1,-1,-1,-1,-1,-1,-1,-1,-1,-1,-1,-1,-1,-1,-1,-1,-1,-1,-1,-1,-1,-1,-1,-1,-1,-1,-1,-1,-1,-1,-1,-1,-1],"split_conditions":[-9.845538E-1,-8.572683E-1,7.954911E-1,-1.1645845E-2,-1.12072356E-1,-3.7023625E-1,2.9396942E-1,-6.139411E-2,-1.523478E-1,-3.2068036E-2,-1.2760189E-1,-1.5841801E-1,-3.8392588E-1,-6.184432E-1,-3.0876184E-1,-2.2320336E-2,-1.527629E-1,8.594864E-2,-1.3351122E-1,1.4710553E0,-1.5041229E-1,-1.8013623E-1,-1.2421525E-1,-1.7787588E-1,-5.482026E-2,-3.8025928E-1,-1.5314642E-1,-6.897778E-2,-2.3593977E-1,9.876412E-2,-1.5273754E-1,-1.7958997E-1,-4.539441E-2,-1.5305611E-1,-3.2068036E-2,9.610395E-1,-5.974699E-1,-3.2078478E-1,-1.2874043E-1,-5.8134604E-1,5.5044085E-1,-7.3386736E-2,-1.8553704E-1,-2.3675878E-1,7.5803703E-1,7.5803703E-1,-1.528914E-1,-4.5543252E-3,-2.0491983E-1,7.5803703E-1,-2.1080447E-2,-5.482026E-2,-1.4759493E-1,7.992296E-2,-1.4793716E-1,-5.619619E-1,-1.5344262E-1,-1.6567217E-1,-1.4966232E-1,-1.5122804E-1,-8.295487E-1,-3.8488355E-1,-1.3997232E0,-1.518083E-1,-1.4379682E-1,7.5803703E-1,1.0524633E-2,9.200272E-2,-3.8219105E-2,-2.9094666E-1,-2.702113E-2,1.0536431E0,-1.4725345E-1,2.7887459E0,1.2334486E0,-2.41537E-2,4.341977E-2,-1.5663439E0,-2.8695846E-1,-2.7936777E-1,-7.928762E-2,9.548229E-2,6.868016E-3,-3.8706744E-1,-1.2425446E-1,-1.3396284E-1,-1.2660407E-2,-1.5042004E-1,-3.134631E-1,-1.4253376E-1,5.492014E-2,-1.8099937E-1,-1.4512806E-1,-3.439574E-1,-1.522726E-1,7.716565E-2,1.7127903E-2,5.303423E0,-6.8977416E-2,9.438155E-2,-1.5007819E-1,-3.6049354E-1,-1.1217713E-1,-6.897803E-2,-1.6494288E-1,-2.3702912E-1,9.564995E-1,7.889451E-1,-1.22428454E-1,8.54039E-1,4.472245E-1,8.314923E-2,-6.897438E-2,-6.418971E-2,-1.5832308E-1,-2.906411E-1,-1.0505551E0,2.551353E-1,-2.030904E0,-1.4048654E-1,2.4492163E-2,4.479087E-2,-6.5152675E-1,-1.8291433E0,-1.02398716E-1,-4.1306797E-1,-1.2623326E-1,6.7460084E-1,-1.1241843E-1,9.610989E-2,3.2034903E-3,4.4062322E-1,1.4680504E-2,-1.8582612E-1,1.6043438E-1,-1.2737738E-1,-1.8577726E-1,-1.1646963E-1,-1.0868827E-2,-2.7539354E-2,-3.2018298E-1,-1.0337305E-2,9.1133E-2,-1.4968602E-1,-1.18626684E-1,7.748107E-2,-1.2862565E-1,-4.3920103E-2,1.9877946E0,-1.0571869E-1,-1.7759399E-1,7.935468E-1,6.686199E-1,-1.5023273E-1,3.622802E-2,-5.8626153E-2,-1.2962694E-1,-1.2765963E-1,6.925936E-2,-1.4854376E-1,-3.8712054E-1,-7.149617E-2,8.479476E-2,-1.3475658E-1,5.247501E-2,-1.360893E-1,2.0662438E-4,-1.7807605E-2,9.714186E-2,-1.5145665E-1,-5.417758E-2,-3.65862E-2,9.213922E-2,-3.000569E-2,-1.3138369E-1,4.169855E-2,9.6994415E-2,7.1469E-2,-9.94776E-2,8.260071E-2,-3.4865078E-2,-8.067968E-2,7.7284954E-2,-1.4945772E-1,-2.534181E-2,5.4283123E-2,-8.718786E-2,9.148834E-2,-5.120671E-2,-1.7171362E-2,8.796034E-2,-8.416166E-2,-1.4820483E-1,-1.4666352E-1,2.6616117E-2,1.8637426E-2,-9.491612E-2,-1.3129605E-1,6.052303E-2,-1.5168239E-1,-6.655602E-2,9.0932585E-2,1.5372828E-2,7.8726865E-2,-5.0508723E-2,-1.488828E-1,1.02465935E-2,-1.5277627E-1,-6.064334E-2,1.2264886E-2,-1.4426604E-1],"split_indices":[52,102,99,1,8,40,48,160,3,4,1,1,58,51,22,0,0,0,0,157,0,1,1,1,160,60,0,15,106,0,0,1,70,0,4,2,136,163,7,52,144,36,41,126,2,2,0,148,23,2,159,160,0,0,0,99,0,105,0,0,89,58,61,0,150,2,52,0,0,144,72,114,8,87,2,109,159,25,137,124,162,0,0,58,0,0,0,0,22,120,98,129,0,156,0,0,0,144,15,0,0,40,0,15,0,126,147,12,101,102,111,0,15,0,0,137,157,136,121,0,0,0,51,163,57,76,131,150,0,0,0,150,128,41,3,0,41,81,0,72,24,0,0,0,93,0,0,0,113,0,129,98,110,0,0,0,101,0,0,0,58,0,0,0,0,0,0,0,0,0,0,0,0,0,0,0,0,0,0,0,0,0,0,0,0,0,0,0,0,0,0,0,0,0,0,0,0,0,0,0,0,0,0,0,0,0,0,0,0,0,0],"split_type":[0,0,0,0,0,0,0,0,0,0,0,0,0,0,0,0,0,0,0,0,0,0,0,0,0,0,0,0,0,0,0,0,0,0,0,0,0,0,0,0,0,0,0,0,0,0,0,0,0,0,0,0,0,0,0,0,0,0,0,0,0,0,0,0,0,0,0,0,0,0,0,0,0,0,0,0,0,0,0,0,0,0,0,0,0,0,0,0,0,0,0,0,0,0,0,0,0,0,0,0,0,0,0,0,0,0,0,0,0,0,0,0,0,0,0,0,0,0,0,0,0,0,0,0,0,0,0,0,0,0,0,0,0,0,0,0,0,0,0,0,0,0,0,0,0,0,0,0,0,0,0,0,0,0,0,0,0,0,0,0,0,0,0,0,0,0,0,0,0,0,0,0,0,0,0,0,0,0,0,0,0,0,0,0,0,0,0,0,0,0,0,0,0,0,0,0,0,0,0,0,0,0,0,0,0,0,0,0,0,0,0],"sum_hessian":[1.5845188E4,9.002012E3,6.843177E3,5.384598E2,8.463552E3,4.368039E3,2.4751375E3,5.294512E2,9.008617E0,8.0008125E3,4.6273914E2,5.7217065E2,3.7958684E3,1.0784724E3,1.3966649E3,4.911719E0,5.245394E2,4.914017E0,4.0945997E0,7.957649E3,4.316387E1,2.170117E2,2.4572743E2,2.6550452E2,3.0666614E2,1.6909457E3,2.1049229E3,4.4535065E2,6.3312177E2,1.1792328E3,2.174321E2,7.7311714E3,2.2647723E2,4.1206654E1,1.7580505E2,1.0982109E1,2.3474532E2,1.687982E2,9.67063E1,2.7388223E2,3.2783905E1,1.6666526E3,2.429306E1,2.0123572E2,2.4411494E2,2.2085461E2,4.1226715E2,1.4439505E2,7.5867764E3,1.4277702E2,8.370021E1,1.5535886E2,2.044619E1,3.296011E0,7.686098E0,7.5056133E0,2.272397E2,3.7661755E1,1.3113646E2,3.7897095E1,5.8809204E1,2.4886449E2,2.5017754E1,2.6230051E1,6.5538545E0,1.6385022E3,2.8150421E1,2.0782717E1,3.510343E0,1.9729742E1,1.8150598E2,7.768681E1,1.6642813E2,1.6925583E2,5.159879E1,1.811805E1,1.26277E2,7.5750317E3,1.1744882E1,6.83008E1,7.447622E1,8.011075E1,3.5894635E0,1.4891356E2,6.4453044E0,4.352347E0,3.1532664E0,1.984152E1,1.7820234E1,2.657568E1,3.2233524E1,2.4212587E2,6.7386127E0,1.2923969E1,1.2093783E1,3.2091484E0,3.344706E0,1.122913E3,5.1558923E2,2.1240358E1,6.910062E0,1.2525074E1,7.2046685E0,1.7361356E2,7.8924212E0,6.113525E1,1.6551561E1,1.4455495E2,2.1873178E1,1.5962329E2,9.632539E0,4.78835E0,4.6810436E1,3.0487332E0,1.5069316E1,8.4527985E1,4.1749012E1,1.1807261E1,7.5632246E3,8.71588E0,3.0290012E0,6.2096577E0,6.209114E1,3.9861187E1,3.461503E1,1.4051936E2,8.394193E0,1.1430303E1,6.389931E0,2.307015E1,3.5055292E0,1.1999628E1,2.0233898E1,2.2058174E1,2.200677E2,3.3871891E0,9.53678E0,1.1193903E3,3.5226912E0,3.203456E2,1.952436E2,4.4263287E0,8.098745E0,1.591261E2,1.4487456E1,3.2246144E0,4.667807E0,4.0527673E0,5.7082485E1,6.213478E0,1.0338083E1,1.2868622E2,1.5868731E1,1.8605017E1,3.268163E0,3.1027768E0,1.5652051E2,4.1603208E0,5.4722185E0,2.0652407E1,2.6158031E1,3.958099E0,8.0569885E1,1.937338E1,2.2375633E1,4.0792522E0,7.728009E0,1.1838154E1,7.551386E3,4.629059E1,1.5800554E1,1.2246014E1,2.7615173E1,1.7542051E1,1.7072979E1,7.651006E0,1.3286836E2,4.3056326E0,4.08856E0,7.5334315E0,3.8968706E0,3.4564202E0,8.543207E0,1.6897205E1,3.3366916E0,1.2324047E1,9.734126E0,2.1576418E2,4.30353E0,3.0851023E0,6.4516783E0,1.6173588E1,1.1032167E3,3.0711234E2,1.3233283E1,7.4935936E1,1.2030767E2,9.955278E0,4.532178E0,5.346754E1,3.6149414E0,6.614188E0,3.7238953E0,1.1981699E2,8.869222E0,5.938928E0,9.929802E0,1.5344037E2,3.0801466E0,1.6878265E1,9.279766E0],"tree_param":{"num_deleted":"0","num_feature":"165","num_nodes":"211","size_leaf_vector":"1"}},{"base_weights":[2.0003503E-2,9.60873E-1,-1.1820012E0,-2.0231524E0,1.1592141E0,-1.7309521E0,-2.0074502E-1,-2.0522242E0,-3.365752E-1,1.2912858E0,-1.0182214E0,-4.0000156E-1,-1.9263614E0,-1.5116186E0,8.4943396E-1,-3.6132954E-2,-1.4067669E-1,8.312368E-2,-1.2699273E-1,1.3106949E0,-1.3876845E-1,1.8378183E-1,-2.0175798E0,-1.4774612E0,5.713731E-1,-1.7399483E0,-1.4116493E-1,-8.7077916E-1,-1.9664118E0,9.5865205E-2,-1.4070211E-1,1.3522618E0,-2.6811078E-2,-1.4068784E-1,7.3007923E-1,-1.1412675E0,-2.0551934E0,-1.8367587E0,-8.259102E-1,8.293339E-1,-1.4218774E0,-1.785299E0,1.0975239E0,-1.7827367E0,-2.3274374E-1,-1.7571948E0,-1.4076068E-1,2.6830116E-1,1.3739619E0,7.996022E-1,-1.2470299E0,1.109713E0,-1.362716E-1,6.498154E-2,-1.3746105E-1,-6.592092E-2,-1.4058198E-1,-1.1709841E0,-1.3779147E-1,-1.3903154E-1,-4.1850742E-2,1.0356606E0,-1.1298597E0,-1.4006057E-1,6.965696E-2,-1.8569716E0,-6.6926533E-1,9.2996635E-2,-3.991006E-2,-1.5754963E-1,-1.962996E0,1.7977756E-1,-1.8171302E0,-1.408666E-1,-1.4688139E0,-1.9733438E0,6.0523057E-1,1.3783509E0,-1.291436E0,-1.21887214E-1,1.0102993E0,-1.7177132E0,-2.3016213E-1,1.2476972E0,-1.1415627E-1,-1.3852961E-1,-1.9942985E-1,1.1974765E0,-1.011507E0,1.1297692E0,-1.336886E-1,-1.4096846E-1,1.07576825E-1,-1.8772275E0,5.0858897E-1,6.147016E-1,-1.9705397E0,8.8511413E-1,-1.0585008E-1,-2.025695E0,-5.221262E-1,6.011391E-1,-1.0216761E0,-2.0380442E0,7.127185E-2,-1.0733405E0,-1.4030461E-1,-5.9947606E-2,-1.4451398E-1,1.0777882E0,-2.9422477E-1,-7.165047E-1,1.3817992E0,-1.4933412E-1,3.935067E-2,1.1341599E0,-1.3062732E-1,-1.9977425E0,-9.204901E-1,5.350694E-1,-1.5802276E0,1.3371267E0,-3.3585376E-1,6.2120765E-1,-1.0845443E-1,9.3117334E-2,3.462034E-3,-1.9095993E0,1.2374477E-1,-1.7994396E-1,1.2624202E0,-8.1012934E-2,8.383901E-1,-2.044978E0,-1.6352077E0,9.817535E-2,-1.1209882E-1,-9.389075E-1,9.2447415E-2,-1.4238228E-1,-7.831246E-3,4.0699826E-3,8.699014E-2,-1.1504239E0,-1.4018261E-1,7.507905E-2,-1.1607922E-1,8.6872864E-1,-9.250211E-1,9.3057126E-2,-1.8876867E0,-6.072503E-2,-1.4226118E-1,-1.3060915E0,7.065205E-2,-7.567944E-2,8.2688496E-2,-9.878628E-2,5.759942E-2,-9.815844E-2,6.3914016E-2,9.447878E-2,3.7684713E-2,-4.9961157E-2,8.637573E-2,-1.4459218E-1,-7.719093E-2,4.2229154E-4,-1.4702323E-1,-8.977087E-2,7.739004E-2,-7.136922E-3,-1.4605242E-1,4.861427E-2,9.358167E-2,6.8870805E-2,-1.263472E-1,7.719022E-2,-3.434399E-2,-1.390233E-1,-6.122318E-2,-9.427831E-2,6.761323E-2,2.8857557E-2,-1.3123885E-1,8.87593E-2,-7.474955E-2,8.055672E-2,1.6372787E-2,-1.395426E-1,-2.9909497E-2,-1.388292E-1,-9.022365E-2,5.737602E-2,-1.3389586E-1,-1.1833064E-1,-9.20031E-3,6.6952795E-2,-1.2441414E-1,-1.2778676E-1,1.7847039E-2,-7.463346E-2,4.7070436E-2,-6.443126E-2,-1.3798083E-1,-1.19990185E-1,-2.8267724E-2],"categories":[],"categories_nodes":[],"categories_segments":[],"categories_sizes":[],"default_left":[0,0,0,0,0,0,0,0,0,0,0,0,0,0,0,0,0,0,0,0,0,0,0,0,0,0,0,0,0,0,0,0,0,0,0,0,0,0,0,0,0,0,0,0,0,0,0,0,0,0,0,0,0,0,0,0,0,0,0,0,0,0,0,0,0,0,0,0,0,0,0,0,0,0,0,0,0,0,0,0,0,0,0,0,0,0,0,0,0,0,0,0,0,0,0,0,0,0,0,0,0,0,0,0,0,0,0,0,0,0,0,0,0,0,0,0,0,0,0,0,0,0,0,0,0,0,0,0,0,0,0,0,0,0,0,0,0,0,0,0,0,0,0,0,0,0,0,0,0,0,0,0,0,0,0,0,0,0,0,0,0,0,0,0,0,0,0,0,0,0,0,0,0,0,0,0,0,0,0,0,0,0,0,0,0,0,0,0,0,0,0,0,0,0,0,0,0,0,0,0,0,0,0,0,0,0,0],"id":3,"left_children":[1,3,5,7,9,11,13,15,17,19,21,23,25,27,29,-1,-1,-1,-1,31,-1,33,35,37,39,41,-1,43,45,-1,-1,47,49,-1,51,53,55,57,59,61,63,65,67,69,71,73,-1,75,77,79,81,83,-1,-1,-1,-1,-1,85,-1,-1,87,89,91,-1,-1,93,95,-1,-1,97,99,101,103,-1,105,107,109,111,113,-1,115,117,119,121,-1,-1,123,125,127,129,-1,-1,131,133,135,137,139,141,-1,143,145,147,149,151,-1,153,-1,-1,-1,155,157,159,161,-1,-1,163,-1,165,167,169,171,173,175,177,-1,-1,-1,179,181,183,185,-1,187,189,191,-1,-1,193,-1,-1,-1,-1,-1,195,-1,-1,-1,197,199,201,203,-1,-1,205,-1,-1,-1,-1,-1,-1,-1,-1,-1,-1,-1,-1,-1,-1,-1,-1,-1,-1,-1,-1,-1,-1,-1,-1,-1,-1,-1,-1,-1,-1,-1,-1,-1,-1,-1,-1,-1,-1,-1,-1,-1,-1,-1,-1,-1,-1,-1,-1,-1,-1,-1,-1,-1],"loss_changes":[1.7626713E4,5.176745E3,3.6859033E3,2.6043945E1,2.359E3,1.1405186E3,3.3825278E3,1.1348389E1,2.7156107E1,5.0239453E2,5.6422314E2,5.901474E2,1.0216992E2,3.1679297E2,2.2296768E3,0E0,0E0,0E0,0E0,4.273379E2,0E0,2.6473132E2,6.1053467E0,6.1041626E1,1.5380127E2,2.2090967E2,0E0,2.6457935E2,1.0030762E1,0E0,0E0,1.7497168E2,2.355936E2,0E0,1.8166418E2,2.5515377E1,8.9697266E-1,1.9123352E1,9.231331E1,1.0766347E2,5.5630913E1,1.3274756E2,1.3218449E1,5.4567017E1,1.7621198E2,1.6489746E1,0E0,1.12629715E2,8.72666E1,7.786099E1,4.4752777E1,6.0751083E1,0E0,0E0,0E0,0E0,0E0,3.335185E1,0E0,0E0,7.319571E1,6.966797E1,3.0036709E1,0E0,0E0,7.634961E1,1.7271591E2,0E0,0E0,3.0225378E1,1.41675415E1,1.0916522E2,3.7371857E1,0E0,2.5009888E1,1.3375931E0,5.516029E1,5.3694336E1,2.2430944E1,0E0,4.9166687E1,1.2521927E1,3.2874004E1,2.1109055E1,0E0,0E0,2.3910172E1,5.177086E0,3.5053284E1,4.0574768E1,0E0,0E0,1.2388693E1,6.000293E1,3.087167E1,6.1877052E1,1.1355179E1,3.8104887E0,0E0,2.5015259E0,1.7999514E1,6.5891174E1,5.428001E1,1.27771E0,0E0,3.6601776E1,0E0,0E0,0E0,2.6881927E1,6.0953083E1,1.6562923E1,3.9848633E1,0E0,0E0,3.2490936E1,0E0,2.7268677E0,2.1364204E1,2.4435493E1,9.355909E0,2.3085632E0,1.9508324E1,8.274673E0,0E0,0E0,0E0,7.4191284E-1,2.2414686E1,2.4305569E1,2.2384277E1,0E0,1.4229255E0,7.713623E0,7.793787E1,0E0,0E0,3.387516E1,0E0,0E0,0E0,0E0,0E0,4.7740984E0,0E0,0E0,0E0,4.4116417E1,2.7944197E1,1.8895285E1,2.2456589E0,0E0,0E0,2.5759743E1,0E0,0E0,0E0,0E0,0E0,0E0,0E0,0E0,0E0,0E0,0E0,0E0,0E0,0E0,0E0,0E0,0E0,0E0,0E0,0E0,0E0,0E0,0E0,0E0,0E0,0E0,0E0,0E0,0E0,0E0,0E0,0E0,0E0,0E0,0E0,0E0,0E0,0E0,0E0,0E0,0E0,0E0,0E0,0E0,0E0,0E0,0E0,0E0,0E0,0E0,0E0,0E0,0E0],"parents":[2147483647,0,0,1,1,2,2,3,3,4,4,5,5,6,6,7,7,8,8,9,9,10,10,11,11,12,12,13,13,14,14,19,19,21,21,22,22,23,23,24,24,25,25,27,27,28,28,31,31,32,32,34,34,35,35,36,36,37,37,38,38,39,39,40,40,41,41,42,42,43,43,44,44,45,45,47,47,48,48,49,49,50,50,51,51,57,57,60,60,61,61,62,62,65,65,66,66,69,69,70,70,71,71,72,72,74,74,75,75,76,76,77,77,78,78,80,80,81,81,82,82,83,83,86,86,87,87,88,88,89,89,92,92,93,93,94,94,95,95,96,96,97,97,99,99,100,100,101,101,102,102,103,103,105,105,109,109,110,110,111,111,112,112,115,115,117,117,118,118,119,119,120,120,121,121,122,122,123,123,127,127,128,128,129,129,130,130,132,132,133,133,134,134,137,137,143,143,147,147,148,148,149,149,150,150,153,153],"right_children":[2,4,6,8,10,12,14,16,18,20,22,24,26,28,30,-1,-1,-1,-1,32,-1,34,36,38,40,42,-1,44,46,-1,-1,48,50,-1,52,54,56,58,60,62,64,66,68,70,72,74,-1,76,78,80,82,84,-1,-1,-1,-1,-1,86,-1,-1,88,90,92,-1,-1,94,96,-1,-1,98,100,102,104,-1,106,108,110,112,114,-1,116,118,120,122,-1,-1,124,126,128,130,-1,-1,132,134,136,138,140,142,-1,144,146,148,150,152,-1,154,-1,-1,-1,156,158,160,162,-1,-1,164,-1,166,168,170,172,174,176,178,-1,-1,-1,180,182,184,186,-1,188,190,192,-1,-1,194,-1,-1,-1,-1,-1,196,-1,-1,-1,198,200,202,204,-1,-1,206,-1,-1,-1,-1,-1,-1,-1,-1,-1,-1,-1,-1,-1,-1,-1,-1,-1,-1,-1,-1,-1,-1,-1,-1,-1,-1,-1,-1,-1,-1,-1,-1,-1,-1,-1,-1,-1,-1,-1,-1,-1,-1,-1,-1,-1,-1,-1,-1,-1,-1,-1,-1,-1],"split_conditions":[-9.845538E-1,-8.924927E-1,8.538975E-1,-1.1645845E-2,-1.12072356E-1,-3.7023625E-1,2.4130867E-1,-6.139411E-2,-1.523478E-1,-3.2068036E-2,-1.2760189E-1,-1.5841801E-1,-3.8392588E-1,-6.184432E-1,-2.5014472E-1,-3.6132954E-2,-1.4067669E-1,8.312368E-2,-1.2699273E-1,1.4710553E0,-1.3876845E-1,-1.8013623E-1,-1.2421525E-1,-1.7787588E-1,-5.482026E-2,-3.8025928E-1,-1.4116493E-1,-6.897803E-2,-2.3593977E-1,9.5865205E-2,-1.4070211E-1,-1.7958997E-1,-7.928762E-2,-1.4068784E-1,-3.2068036E-2,-9.907994E-2,-3.7332648E-1,-3.2078478E-1,-1.2874043E-1,-5.8134604E-1,8.607545E-1,-2.763047E-2,-7.6404035E-2,-2.3675878E-1,-1.4725345E-1,-6.924124E-2,-1.4076068E-1,-4.5543252E-3,-2.0491983E-1,-3.6869654E-3,-6.516965E-1,-5.482026E-2,-1.362716E-1,6.498154E-2,-1.3746105E-1,-6.592092E-2,-1.4058198E-1,-6.654666E-1,-1.3779147E-1,-1.3903154E-1,-8.295487E-1,-3.8488355E-1,9.564995E-1,-1.4006057E-1,6.965696E-2,4.690925E0,1.4418687E-1,9.2996635E-2,-3.991006E-2,-2.9094666E-1,-2.702113E-2,1.4351094E0,1.0703335E0,-1.408666E-1,-1.322858E-1,-7.347026E-1,4.341977E-2,-1.5663439E0,1.7295603E-1,-1.21887214E-1,-1.17737465E-1,2.6909007E-2,-3.7033334E-1,-3.870393E-1,-1.1415627E-1,-1.3852961E-1,-3.5308924E-1,-1.4797756E-1,-1.9843511E-1,-1.8099937E-1,-1.336886E-1,-1.4096846E-1,-2.1517844E-1,-6.897793E-2,-5.112105E-2,-7.813201E-2,5.9288794E-1,-8.847735E-1,-1.0585008E-1,-2.3123625E-1,-1.6494288E-1,4.3005535E-1,-3.134626E-1,-2.6592305E-1,7.127185E-2,-2.333282E-1,-1.4030461E-1,-5.9947606E-2,-1.4451398E-1,-2.9050958E-1,-1.0584553E0,-4.539249E-2,8.0441546E-1,-1.4933412E-1,3.935067E-2,-3.83426E-1,-1.3062732E-1,1.3382622E0,-8.7510234E-1,-4.77913E-1,-3.5256284E-1,-4.1306797E-1,-1.2623326E-1,-1.6420762E-1,-1.0845443E-1,9.3117334E-2,3.462034E-3,5.464074E-1,-1.6177692E0,2.9739344E-1,8.2771406E-2,-8.1012934E-2,-2.3157054E-1,-7.2484665E-2,-3.7861282E-1,9.817535E-2,-1.1209882E-1,-1.1604923E-1,9.2447415E-2,-1.4238228E-1,-7.831246E-3,4.0699826E-3,8.699014E-2,5.7757515E-1,-1.4018261E-1,7.507905E-2,-1.1607922E-1,7.4583255E-2,-3.2017994E-1,-1.7017296E-1,7.8336596E-1,-6.072503E-2,-1.4226118E-1,-3.143884E-1,7.065205E-2,-7.567944E-2,8.2688496E-2,-9.878628E-2,5.759942E-2,-9.815844E-2,6.3914016E-2,9.447878E-2,3.7684713E-2,-4.9961157E-2,8.637573E-2,-1.4459218E-1,-7.719093E-2,4.2229154E-4,-1.4702323E-1,-8.977087E-2,7.739004E-2,-7.136922E-3,-1.4605242E-1,4.861427E-2,9.358167E-2,6.8870805E-2,-1.263472E-1,7.719022E-2,-3.434399E-2,-1.390233E-1,-6.122318E-2,-9.427831E-2,6.761323E-2,2.8857557E-2,-1.3123885E-1,8.87593E-2,-7.474955E-2,8.055672E-2,1.6372787E-2,-1.395426E-1,-2.9909497E-2,-1.388292E-1,-9.022365E-2,5.737602E-2,-1.3389586E-1,-1.1833064E-1,-9.20031E-3,6.6952795E-2,-1.2441414E-1,-1.2778676E-1,1.7847039E-2,-7.463346E-2,4.7070436E-2,-6.443126E-2,-1.3798083E-1,-1.19990185E-1,-2.8267724E-2],"split_indices":[52,100,102,1,8,40,45,160,3,4,1,1,58,51,21,0,0,0,0,157,0,1,1,1,160,60,0,15,106,0,0,1,162,0,4,162,59,163,7,52,143,72,3,126,8,15,0,148,23,114,51,160,0,0,0,0,0,111,0,0,89,58,147,0,0,5,88,0,0,144,72,100,137,0,96,135,159,25,145,0,93,104,40,58,0,0,42,120,107,129,0,0,108,15,4,34,135,134,0,108,0,12,22,106,0,126,0,0,0,137,145,70,79,0,0,60,0,100,54,154,87,76,131,0,0,0,0,138,43,26,130,0,106,34,143,0,0,162,0,0,0,0,0,136,0,0,0,89,30,107,136,0,0,45,0,0,0,0,0,0,0,0,0,0,0,0,0,0,0,0,0,0,0,0,0,0,0,0,0,0,0,0,0,0,0,0,0,0,0,0,0,0,0,0,0,0,0,0,0,0,0,0,0,0,0,0,0],"split_type":[0,0,0,0,0,0,0,0,0,0,0,0,0,0,0,0,0,0,0,0,0,0,0,0,0,0,0,0,0,0,0,0,0,0,0,0,0,0,0,0,0,0,0,0,0,0,0,0,0,0,0,0,0,0,0,0,0,0,0,0,0,0,0,0,0,0,0,0,0,0,0,0,0,0,0,0,0,0,0,0,0,0,0,0,0,0,0,0,0,0,0,0,0,0,0,0,0,0,0,0,0,0,0,0,0,0,0,0,0,0,0,0,0,0,0,0,0,0,0,0,0,0,0,0,0,0,0,0,0,0,0,0,0,0,0,0,0,0,0,0,0,0,0,0,0,0,0,0,0,0,0,0,0,0,0,0,0,0,0,0,0,0,0,0,0,0,0,0,0,0,0,0,0,0,0,0,0,0,0,0,0,0,0,0,0,0,0,0,0,0,0,0,0,0,0,0,0,0,0,0,0,0,0,0,0,0,0],"sum_hessian":[1.5584036E4,8.741683E3,6.8423535E3,5.4425244E2,8.197431E3,4.387218E3,2.455136E3,5.348169E2,9.435513E0,7.729035E3,4.6839517E2,5.620553E2,3.8251626E3,1.0918312E3,1.3633048E3,5.6708155E0,5.2914606E2,4.7741337E0,4.6613784E0,7.68486E3,4.417541E1,2.1300916E2,2.5538602E2,2.6622952E2,2.9582574E2,1.7004922E3,2.1246704E3,4.5442514E2,6.37406E2,1.1443584E3,2.189463E2,7.4532188E3,2.3164113E2,4.104924E1,1.7195992E2,1.1800627E1,2.4358539E2,1.7042801E2,9.58015E1,2.6244482E2,3.3380936E1,1.6741061E3,2.6386051E1,1.8631996E2,2.6810516E2,2.153113E2,4.220947E2,1.4654259E2,7.306676E3,1.3831186E2,9.332928E1,1.5150711E2,2.0452808E1,3.4606495E0,8.339977E0,3.3145678E0,2.4027083E2,3.9171192E1,1.3125682E2,3.690038E1,5.8901123E1,2.3786604E2,2.4578773E1,2.661238E1,6.768557E0,1.5724575E3,1.01648605E2,2.2911667E1,3.4743853E0,1.8789656E1,1.675303E2,2.1342339E2,5.4681786E1,1.0027035E2,1.1504095E2,1.8513365E1,1.2802922E2,7.2951465E3,1.1529501E1,9.837516E0,1.2847433E2,6.3327362E1,3.0001915E1,1.4488727E2,6.61984E0,2.0142866E1,1.9028326E1,2.5752127E1,3.3149E1,2.3123682E2,6.6292305E0,1.35729475E1,1.1005826E1,1.5593118E3,1.3145672E1,5.143013E1,5.0218475E1,1.0973145E1,7.8165116E0,1.601553E2,7.3750095E0,1.5837823E2,5.5045143E1,5.1034607E1,3.6471817E0,7.071027E1,4.433067E1,3.0725236E0,1.5440841E1,8.3802574E1,4.422664E1,1.1648791E1,7.2834976E3,7.6567006E0,3.8728E0,1.2385183E2,4.6225085E0,4.5751133E1,1.757623E1,1.9533686E1,1.0468229E1,1.372896E2,7.597676E0,1.2328038E1,6.700288E0,2.2240719E1,3.5114079E0,1.8126844E1,1.5022154E1,2.1233536E1,2.1000328E2,3.737465E0,7.268361E0,9.1656604E2,6.427458E2,9.402275E0,3.7433972E0,1.6568659E1,3.486147E1,4.69998E1,3.2186747E0,3.9137933E0,7.059351E0,7.382158E0,1.5277315E2,3.136407E0,4.2386026E0,1.3511807E2,2.326017E1,2.445679E1,3.0588354E1,3.0347571E0,4.7999847E1,6.403396E1,6.676315E0,4.5307217E0,7.927186E1,2.1815708E1,2.241093E1,8.187305E0,3.4614854E0,7.2240605E3,5.943719E1,8.063188E0,1.1578864E2,3.859803E1,7.153102E0,1.0629327E1,6.9469013E0,4.497204E0,1.5036481E1,3.2322686E0,7.235961E0,9.079206E0,1.2821039E2,4.205276E0,3.3923995E0,8.462884E0,3.865154E0,1.5105147E1,3.0216966E0,5.275921E0,9.746232E0,1.63453E1,4.888236E0,2.0676768E2,3.2355895E0,3.98453E0,3.2838311E0,9.1296265E2,3.603414E0,2.7579483E2,3.6695096E2,6.1306257E0,1.0438034E1,4.221406E0,3.1607516E0,1.3018977E2,4.928298E0,1.2580391E1,1.0679778E1,7.908058E0,1.6548733E1,4.9727097E0,2.5615644E1,4.166009E1,2.2373869E1],"tree_param":{"num_deleted":"0","num_feature":"165","num_nodes":"207","size_leaf_vector":"1"}},{"base_weights":[2.0390524E-2,9.3175465E-1,-1.1146524E0,-1.8949008E0,1.1272417E0,-1.617727E0,-1.9875371E-1,-1.9234202E0,-8.6840993E-1,1.2586018E0,-9.2563003E-1,-4.2192137E-1,-1.7987612E0,-1.4276745E0,8.168818E-1,-1.3147981E-1,-2.6254727E-2,-1.2736635E-1,4.0147927E-1,1.2797579E0,-1.2977034E-1,2.5696206E-1,-1.8487271E0,-1.3944589E0,4.910523E-1,-1.6300176E0,-1.9314048E0,-1.8418475E0,-8.723954E-1,9.331915E-2,-1.3113017E-1,8.757052E-2,-5.510229E-2,1.3182589E0,2.2606635E-2,9.1262645E-1,-1.8349464E0,-1.9037923E0,6.851745E-2,-5.133865E-1,-1.6174947E0,7.7413505E-1,-1.4092008E0,-1.6682647E0,1.0651693E0,-1.315338E-1,-6.7243904E-2,7.629447E-2,-1.8618037E0,-1.6409981E0,-9.229529E-2,2.3102221E-1,1.3399365E0,-7.1546936E-1,1.2769775E0,-1.2665753E-1,1.2054932E0,-1.3687319E-1,-6.808948E-1,-1.9316939E0,-1.6841026E-2,-1.2791637E-1,5.599637E-1,-1.7467294E0,-6.344336E-1,9.8472387E-1,-1.0381145E0,-1.8581337E0,8.161253E-2,-1.2062616E0,-1.7928454E0,9.000005E-2,-2.9878492E-2,-1.046135E0,-1.8884212E0,8.343193E-2,-1.7143344E0,3.7388325E-1,-1.3637141E0,-1.8159213E0,5.4411143E-1,-8.38945E-1,1.3444769E0,-1.6899235E0,-1.4608414E-1,1.3404264E0,-1.8458024E-2,1.2748374E0,-5.3810284E-2,-1.10185035E-1,3.9073955E-2,-1.323457E0,-1.3414732E-1,-1.15837105E-1,1.1728417E0,-1.809584E0,-4.9825814E-1,-1.253514E-1,2.188847E-1,1.0791129E0,-1.2470561E-1,1.1243447E-1,-1.7903367E0,-1.3193195E-1,-5.358131E-2,-1.5390704E0,1.0946462E-1,-1.8193454E0,1.9318023E-1,5.8382753E-2,-1.5829314E0,-1.2960042E-1,-1.298954E0,-3.9633325E-1,-1.8342714E0,8.8521093E-1,-1.1426855E0,-2.5669703E-1,-1.8037335E0,-5.2891612E-2,-1.3413474E-1,1.0270394E0,-3.2375544E-1,-1.5833229E-1,7.462727E-2,1.3516159E0,5.236127E-1,-3.018114E-1,-1.3293418E-1,-1.0475565E0,6.3026327E-1,9.284449E-2,4.1819148E-2,1.3095598E0,3.0063113E-4,-1.2348241E-1,4.729347E-2,8.841622E-2,1.4126831E-2,-1.891319E0,-1.1531478E0,6.433135E-2,-1.1622226E-1,8.7407887E-1,-8.1894174E-2,-9.8552763E-1,1.1506958E0,9.176162E-1,-8.139897E-2,-1.3301592E-1,-5.4281563E-2,-1.6363332E0,7.785458E-1,-1.3181233E-1,-1.62972E0,9.3113504E-2,-1.2967308E-1,-1.2877038E-1,-3.2959435E-2,-1.2595746E-1,2.1540172E-2,6.715674E-1,-1.249972E-1,-1.2997799E-1,-8.0055726E-1,1.1291918E0,-4.536122E-1,-1.7129292E-1,-1.9623104E0,8.692956E-1,-1.2614679E0,-1.45276515E-2,-1.9169308E0,-5.257174E-2,8.003563E-2,-1.12262905E-1,4.0409613E-2,9.214736E-2,-3.1362243E-2,7.223701E-2,-1.6858567E-1,-7.655848E-2,3.0778516E-2,-1.1443672E-1,-1.2587844E-2,6.329027E-2,-8.296122E-2,9.167464E-2,5.4359067E-2,-1.30913E-1,-9.092803E-2,-1.0258928E-2,-1.2706204E-1,8.3785415E-2,4.9903886E-3,1.8277079E-2,-1.2813538E-1,-9.034898E-2,8.198686E-2,2.7716033E-2,7.8225434E-2,-1.1809017E-1,3.8894072E-2,-5.6599017E-2,9.449673E-2,-1.21038616E-1,-6.6371955E-2,-1.5654543E-2,8.4323116E-2,-1.1594649E-1,4.8982266E-2,8.1519015E-2,-4.5405835E-2,5.867767E-2,-1.16470665E-1,4.9294423E-2,-1.2354647E-1,-6.811841E-2,-1.4153993E-1,1.4946761E-2,8.450454E-2,-1.2207025E-3,-1.2390225E-1,-5.713896E-2,-1.3470225E-1],"categories":[],"categories_nodes":[],"categories_segments":[],"categories_sizes":[],"default_left":[0,0,0,0,0,0,0,0,0,0,0,0,0,0,0,0,0,0,0,0,0,0,0,0,0,0,0,0,0,0,0,0,0,0,0,0,0,0,0,0,0,0,0,0,0,0,0,0,0,0,0,0,0,0,0,0,0,0,0,0,0,0,0,0,0,0,0,0,0,0,0,0,0,0,0,0,0,0,0,0,0,0,0,0,0,0,0,0,0,0,0,0,0,0,0,0,0,0,0,0,0,0,0,0,0,0,0,0,0,0,0,0,0,0,0,0,0,0,0,0,0,0,0,0,0,0,0,0,0,0,0,0,0,0,0,0,0,0,0,0,0,0,0,0,0,0,0,0,0,0,0,0,0,0,0,0,0,0,0,0,0,0,0,0,0,0,0,0,0,0,0,0,0,0,0,0,0,0,0,0,0,0,0,0,0,0,0,0,0,0,0,0,0,0,0,0,0,0,0,0,0,0,0,0,0,0,0,0,0,0,0,0,0,0,0,0,0,0,0,0,0,0,0,0,0],"id":4,"left_children":[1,3,5,7,9,11,13,15,17,19,21,23,25,27,29,-1,-1,-1,31,33,-1,35,37,39,41,43,45,47,49,-1,-1,-1,-1,51,53,55,57,59,-1,61,63,65,67,69,71,-1,-1,-1,73,75,77,79,81,83,85,-1,87,-1,89,91,-1,-1,93,95,97,99,101,103,-1,105,107,-1,-1,109,111,-1,113,115,117,119,121,123,125,127,129,131,-1,133,-1,-1,-1,135,-1,-1,137,139,141,-1,143,145,-1,147,149,-1,-1,151,-1,153,155,-1,157,-1,159,161,163,165,167,169,171,-1,-1,173,175,-1,-1,177,179,181,-1,183,185,-1,-1,187,-1,-1,-1,-1,-1,189,191,-1,-1,193,-1,195,197,199,-1,-1,-1,201,203,-1,205,-1,-1,-1,-1,-1,-1,207,-1,-1,209,211,213,215,217,219,221,-1,223,-1,-1,-1,-1,-1,-1,-1,-1,-1,-1,-1,-1,-1,-1,-1,-1,-1,-1,-1,-1,-1,-1,-1,-1,-1,-1,-1,-1,-1,-1,-1,-1,-1,-1,-1,-1,-1,-1,-1,-1,-1,-1,-1,-1,-1,-1,-1,-1,-1,-1,-1,-1],"loss_changes":[1.5755923E4,4.6703447E3,3.1251807E3,1.4338379E1,2.1321318E3,9.470498E2,3.0042385E3,6.531494E0,2.191164E1,4.999004E2,5.1990234E2,5.129863E2,8.195801E1,2.4885986E2,2.0084525E3,0E0,0E0,0E0,9.787582E0,3.5711328E2,0E0,2.8898016E2,4.395813E1,5.4121338E1,1.6157837E2,1.7493799E2,1.5297852E0,3.89209E1,2.799621E2,0E0,0E0,0E0,0E0,1.6842969E2,2.0485461E2,1.3235611E2,8.888336E0,1.1659119E1,0E0,8.605905E1,2.71828E1,1.0036557E2,4.7944664E1,9.319141E1,9.923338E0,0E0,0E0,0E0,1.146582E1,5.1570435E1,1.3856E2,9.145741E1,7.057031E1,7.7054405E1,8.414886E0,0E0,2.1145386E1,0E0,1.0578812E1,3.6460571E0,0E0,0E0,4.8071674E1,1.4497803E1,2.868814E1,6.413353E1,2.407627E1,1.3897171E0,0E0,3.3498346E2,6.891699E1,0E0,0E0,2.3647995E1,3.2700195E0,0E0,3.5601196E1,1.3377913E2,3.0080437E1,1.5278816E0,5.1970757E1,4.6370094E1,4.0342773E1,1.819011E1,6.297048E1,5.408478E-1,0E0,6.212433E0,0E0,0E0,0E0,2.00167E1,0E0,0E0,2.9973717E0,7.822998E0,2.045481E1,0E0,1.6873137E1,3.4649628E1,0E0,1.3581304E1,1.1748085E0,0E0,0E0,7.293445E1,0E0,2.5581055E1,4.7156303E1,0E0,4.9880066E0,0E0,1.7742504E1,3.268793E1,1.4994751E1,4.2520325E1,3.4382572E1,2.25931E1,7.6376495E0,0E0,0E0,2.2232033E1,5.5509018E1,0E0,0E0,3.4021484E1,1.0279497E2,6.3288126E0,0E0,2.2433651E1,2.8013927E1,0E0,0E0,1.5694885E0,0E0,0E0,0E0,0E0,0E0,4.0777588E-1,1.6333921E1,0E0,0E0,3.4005756E0,0E0,9.66704E0,3.1130676E1,4.671464E-1,0E0,0E0,0E0,6.789557E1,1.4403931E1,0E0,4.6976685E1,0E0,0E0,0E0,0E0,0E0,0E0,6.669934E0,0E0,0E0,2.3379265E1,1.4294876E1,3.547894E1,3.2324806E1,5.862198E-1,2.0395079E0,7.237009E0,0E0,1.1502533E0,0E0,0E0,0E0,0E0,0E0,0E0,0E0,0E0,0E0,0E0,0E0,0E0,0E0,0E0,0E0,0E0,0E0,0E0,0E0,0E0,0E0,0E0,0E0,0E0,0E0,0E0,0E0,0E0,0E0,0E0,0E0,0E0,0E0,0E0,0E0,0E0,0E0,0E0,0E0,0E0,0E0,0E0,0E0,0E0,0E0,0E0,0E0,0E0,0E0,0E0,0E0,0E0],"parents":[2147483647,0,0,1,1,2,2,3,3,4,4,5,5,6,6,7,7,8,8,9,9,10,10,11,11,12,12,13,13,14,14,18,18,19,19,21,21,22,22,23,23,24,24,25,25,26,26,27,27,28,28,33,33,34,34,35,35,36,36,37,37,39,39,40,40,41,41,42,42,43,43,44,44,48,48,49,49,50,50,51,51,52,52,53,53,54,54,56,56,58,58,59,59,62,62,63,63,64,64,65,65,66,66,67,67,69,69,70,70,73,73,74,74,76,76,77,77,78,78,79,79,80,80,81,81,82,82,83,83,84,84,85,85,87,87,91,91,94,94,95,95,96,96,98,98,99,99,101,101,102,102,105,105,107,107,108,108,110,110,112,112,113,113,114,114,115,115,116,116,117,117,118,118,121,121,122,122,125,125,126,126,127,127,129,129,130,130,133,133,139,139,140,140,143,143,145,145,146,146,147,147,151,151,152,152,154,154,161,161,164,164,165,165,166,166,167,167,168,168,169,169,170,170,172,172],"right_children":[2,4,6,8,10,12,14,16,18,20,22,24,26,28,30,-1,-1,-1,32,34,-1,36,38,40,42,44,46,48,50,-1,-1,-1,-1,52,54,56,58,60,-1,62,64,66,68,70,72,-1,-1,-1,74,76,78,80,82,84,86,-1,88,-1,90,92,-1,-1,94,96,98,100,102,104,-1,106,108,-1,-1,110,112,-1,114,116,118,120,122,124,126,128,130,132,-1,134,-1,-1,-1,136,-1,-1,138,140,142,-1,144,146,-1,148,150,-1,-1,152,-1,154,156,-1,158,-1,160,162,164,166,168,170,172,-1,-1,174,176,-1,-1,178,180,182,-1,184,186,-1,-1,188,-1,-1,-1,-1,-1,190,192,-1,-1,194,-1,196,198,200,-1,-1,-1,202,204,-1,206,-1,-1,-1,-1,-1,-1,208,-1,-1,210,212,214,216,218,220,222,-1,224,-1,-1,-1,-1,-1,-1,-1,-1,-1,-1,-1,-1,-1,-1,-1,-1,-1,-1,-1,-1,-1,-1,-1,-1,-1,-1,-1,-1,-1,-1,-1,-1,-1,-1,-1,-1,-1,-1,-1,-1,-1,-1,-1,-1,-1,-1,-1,-1,-1,-1,-1,-1],"split_conditions":[-9.845538E-1,-8.572683E-1,8.538975E-1,-3.5109788E-1,-1.6425899E-1,-3.8832027E-1,2.4130867E-1,1.6918229E-1,-1.1781092E-1,-3.2068036E-2,-1.5119787E0,-1.5841801E-1,-3.8392588E-1,7.5803703E-1,-2.5014472E-1,-1.3147981E-1,-2.6254727E-2,-1.2736635E-1,-3.8341585E-1,1.4710553E0,-1.2977034E-1,-1.2221471E-1,-1.16449445E-1,-1.2923037E-1,-5.482026E-2,-3.8025928E-1,9.4661653E-1,-3.8842556E-1,-6.897778E-2,9.331915E-2,-1.3113017E-1,8.757052E-2,-5.510229E-2,-1.7958997E-1,-4.539441E-2,-1.8418603E-1,-1.5301178E0,-8.7307346E-1,6.851745E-2,-1.2875669E-1,7.5803703E-1,-5.8134604E-1,2.7794476E0,-1.5894482E-1,-1.1177451E-1,-1.315338E-1,-6.7243904E-2,7.629447E-2,-8.5555184E-1,1.2334486E0,-5.954531E-1,-4.5543252E-3,-1.4412698E0,-9.950303E-1,2.1711748E-2,-1.2665753E-1,-5.482026E-2,-1.3687319E-1,-3.5252723E-1,-1.3871632E0,-1.6841026E-2,-1.2791637E-1,-1.8418603E-1,6.709838E-1,1.380349E-2,-3.8488355E-1,-1.5566958E0,8.7919027E-1,8.161253E-2,-1.5988897E-1,-7.3386736E-2,9.000005E-2,-2.9878492E-2,-5.112105E-2,2.8308566E0,8.343193E-2,-2.3675878E-1,-8.486183E-2,-5.162748E-1,-1.445737E0,4.341977E-2,-4.539249E-2,8.0441546E-1,-1.0239875E-1,7.5803703E-1,-1.7175458E-1,-1.8458024E-2,-4.56413E-1,-5.3810284E-2,-1.10185035E-1,3.9073955E-2,1.1540611E0,-1.3414732E-1,-1.15837105E-1,-1.3532141E-1,9.672436E-1,-4.3992415E-1,-1.253514E-1,-3.20185E-1,-1.2885515E-1,-1.2470561E-1,-1.137611E0,-2.5792187E-1,-1.3193195E-1,-5.358131E-2,1.1541147E0,1.0946462E-1,-6.897793E-2,1.0524633E-2,5.8382753E-2,-1.6299818E-1,-1.2960042E-1,-6.6614315E-2,-2.9094666E-1,-6.897803E-2,5.5765283E-1,1.3132589E0,5.3345775E-3,4.353256E-1,-5.2891612E-2,-1.3413474E-1,-2.9018077E-1,-1.4395702E0,-1.5833229E-1,7.462727E-2,-8.6255826E-2,-2.345262E-1,-1.556605E-1,-1.3293418E-1,-1.2827843E-1,-9.943669E-1,9.284449E-2,4.1819148E-2,-5.905361E-1,3.0063113E-4,-1.2348241E-1,4.729347E-2,8.841622E-2,1.4126831E-2,2.4289465E0,-3.8840005E-1,6.433135E-2,-1.1622226E-1,-2.304126E-1,-8.1894174E-2,-3.5253987E-1,-6.517716E-1,-9.155202E-2,-8.139897E-2,-1.3301592E-1,-5.4281563E-2,-2.7507072E-2,-1.1339288E-1,-1.3181233E-1,9.564995E-1,9.3113504E-2,-1.2967308E-1,-1.2877038E-1,-3.2959435E-2,-1.2595746E-1,2.1540172E-2,-1.7868896E-1,-1.249972E-1,-1.2997799E-1,-1.18626684E-1,-2.2067334E-1,-2.2223319E-1,-1.999262E-1,-6.897689E-2,-3.7887713E-1,-2.579247E-1,-1.45276515E-2,-3.530543E-1,-5.257174E-2,8.003563E-2,-1.12262905E-1,4.0409613E-2,9.214736E-2,-3.1362243E-2,7.223701E-2,-1.6858567E-1,-7.655848E-2,3.0778516E-2,-1.1443672E-1,-1.2587844E-2,6.329027E-2,-8.296122E-2,9.167464E-2,5.4359067E-2,-1.30913E-1,-9.092803E-2,-1.0258928E-2,-1.2706204E-1,8.3785415E-2,4.9903886E-3,1.8277079E-2,-1.2813538E-1,-9.034898E-2,8.198686E-2,2.7716033E-2,7.8225434E-2,-1.1809017E-1,3.8894072E-2,-5.6599017E-2,9.449673E-2,-1.21038616E-1,-6.6371955E-2,-1.5654543E-2,8.4323116E-2,-1.1594649E-1,4.8982266E-2,8.1519015E-2,-4.5405835E-2,5.867767E-2,-1.16470665E-1,4.9294423E-2,-1.2354647E-1,-6.811841E-2,-1.4153993E-1,1.4946761E-2,8.450454E-2,-1.2207025E-3,-1.2390225E-1,-5.713896E-2,-1.3470225E-1],"split_indices":[52,102,102,87,17,46,45,1,93,4,79,1,58,2,21,0,0,0,60,157,0,1,81,131,160,60,135,46,15,0,0,0,0,1,70,1,85,54,0,7,2,52,143,123,3,0,0,0,54,2,51,148,97,52,159,0,160,0,87,79,0,0,1,119,136,58,85,118,0,123,36,0,0,4,87,0,126,9,151,97,159,70,79,57,2,143,0,82,0,0,0,19,0,0,120,114,112,0,24,7,0,11,21,0,0,153,0,15,52,0,137,0,33,144,15,91,102,112,136,0,0,137,91,0,0,9,151,130,0,7,52,0,0,88,0,0,0,0,0,127,46,0,0,153,0,87,51,118,0,0,0,72,18,0,147,0,0,0,0,0,0,41,0,0,93,126,147,97,15,46,21,0,42,0,0,0,0,0,0,0,0,0,0,0,0,0,0,0,0,0,0,0,0,0,0,0,0,0,0,0,0,0,0,0,0,0,0,0,0,0,0,0,0,0,0,0,0,0,0,0,0,0,0,0,0],"split_type":[0,0,0,0,0,0,0,0,0,0,0,0,0,0,0,0,0,0,0,0,0,0,0,0,0,0,0,0,0,0,0,0,0,0,0,0,0,0,0,0,0,0,0,0,0,0,0,0,0,0,0,0,0,0,0,0,0,0,0,0,0,0,0,0,0,0,0,0,0,0,0,0,0,0,0,0,0,0,0,0,0,0,0,0,0,0,0,0,0,0,0,0,0,0,0,0,0,0,0,0,0,0,0,0,0,0,0,0,0,0,0,0,0,0,0,0,0,0,0,0,0,0,0,0,0,0,0,0,0,0,0,0,0,0,0,0,0,0,0,0,0,0,0,0,0,0,0,0,0,0,0,0,0,0,0,0,0,0,0,0,0,0,0,0,0,0,0,0,0,0,0,0,0,0,0,0,0,0,0,0,0,0,0,0,0,0,0,0,0,0,0,0,0,0,0,0,0,0,0,0,0,0,0,0,0,0,0,0,0,0,0,0,0,0,0,0,0,0,0,0,0,0,0,0,0],"sum_hessian":[1.5229389E4,8.4471045E3,6.7822847E3,5.4583795E2,7.901266E3,4.3772383E3,2.4050466E3,5.3023254E2,1.5605427E1,7.4264463E3,4.7481973E2,5.759804E2,3.8012576E3,1.088072E3,1.3169747E3,5.2692255E2,3.310007E0,8.452346E0,7.153081E0,7.3777393E3,4.8707264E1,2.0846896E2,2.6635077E2,2.7863718E2,2.9734326E2,1.6788212E3,2.1224363E3,6.218946E2,4.661774E2,1.0959673E3,2.210075E2,4.0961185E0,3.0569625E0,7.158458E3,2.192812E2,1.5915039E2,4.931858E1,2.6163907E2,4.71171E0,5.6953194E1,2.2168398E2,2.5930667E2,3.8036583E1,1.6557063E3,2.3114927E1,2.117529E3,4.9074163E0,3.7911286E0,6.1810345E2,2.3426324E2,2.3191414E2,1.4016515E2,7.018293E3,1.3832181E2,8.095939E1,1.468601E1,1.4446437E2,4.212718E1,7.1914043E0,2.5714102E2,4.498052E0,2.4723785E1,3.222941E1,1.9524054E2,2.6443436E1,2.3272049E2,2.6586187E1,3.2697266E1,5.3393183E0,3.5391315E2,1.3017932E3,1.9839085E1,3.2758434E0,2.0806688E1,5.972968E2,5.4504623E0,2.2881279E2,1.7021063E2,6.170351E1,1.7957958E1,1.222072E2,1.4212351E1,7.0040806E3,5.028882E1,8.803299E1,7.790115E1,3.0582361E0,1.3996402E2,4.5003524E0,3.94877E0,3.2426345E0,1.7910904E1,2.392301E2,6.490908E0,2.5738499E1,1.8545433E2,9.786198E0,1.0467829E1,1.5975608E1,2.2577383E2,6.9466653E0,1.0846552E1,1.5739635E1,2.964769E1,3.0495758E0,3.1690073E2,3.7012417E1,1.2847346E3,1.7058567E1,4.4440174E0,1.636267E1,5.790656E2,1.8231197E1,1.9444084E1,2.093687E2,1.276039E2,4.2606735E1,1.8000517E1,4.3702995E1,3.1188288E0,1.48391285E1,7.839859E1,4.380861E1,7.921116E0,6.291235E0,6.943052E3,6.1028908E1,8.372708E0,4.191611E1,4.057228E1,4.746071E1,7.454713E1,3.3540304E0,1.3621037E2,3.7536433E0,1.4485783E1,3.425121E0,2.2448109E1,3.2903903E0,1.6324678E2,2.2207561E1,4.561445E0,5.2247524E0,1.12016115E1,4.773997E0,7.13764E0,2.1863618E2,6.900173E0,3.9463787E0,1.2669495E1,3.0701404E0,3.044192E2,1.2481518E1,7.8657935E2,4.9815524E2,1.1158505E1,5.900061E0,1.2201423E1,4.1612477E0,1.3478238E1,4.75296E0,1.14735E1,7.9705844E0,1.9424239E2,1.5126316E1,1.0806687E2,1.9537022E1,2.0051426E1,2.2555307E1,8.551804E0,9.448713E0,3.0959864E0,4.060701E1,5.683067E0,7.271552E1,1.75901E1,2.621851E1,6.933155E3,9.896552E0,5.229946E1,8.729447E0,3.767541E0,4.605168E0,2.2832315E1,1.7739965E1,4.1266453E1,6.1942563E0,1.25305855E2,1.0904528E1,1.5183861E2,1.1408168E1,9.744029E0,1.2463532E1,7.373621E0,3.8279905E0,3.2698965E0,3.8677433E0,4.17989E0,2.144563E2,3.0182686E0,3.8819048E0,2.9153342E2,1.288578E1,3.330283E0,9.151235E0,4.0427164E2,9.388361E1,4.6627903E0,6.81071E0,9.412449E0,5.713867E0,1.0439757E2,3.6693082E0,9.702708E0,9.834314E0,1.3342779E1,6.7086477E0,3.5008273E0,1.905448E1,3.696791E0,4.8550124E0,3.2522893E0,6.1964245E0,3.027332E0,3.7579678E1],"tree_param":{"num_deleted":"0","num_feature":"165","num_nodes":"225","size_leaf_vector":"1"}},{"base_weights":[1.8822802E-2,9.021012E-1,-1.0493922E0,-1.766912E0,1.0920614E0,-1.5172405E0,-1.7855588E-1,-7.8121156E-2,-1.7924917E0,1.2234241E0,-8.6878604E-1,-3.8385177E-1,-1.6874754E0,-1.3520551E0,7.9913706E-1,-1.1109244E-1,8.036891E-2,-1.8063456E0,1.1237708E-2,1.244154E0,-1.2203888E-1,2.2675568E-1,-1.7429048E0,-9.1893536E-1,6.8601966E-1,-1.5212339E0,-1.8167466E0,-8.0564475E-1,-1.7246763E0,9.105915E-2,-1.23333246E-1,-1.2364603E-1,-1.0813326E0,1.2830178E0,2.7850585E-2,9.036906E-1,-1.4771482E0,-1.7818459E0,6.503887E-2,1.0802447E0,-1.1159291E0,-9.496911E-1,1.0830071E0,-1.5565989E0,9.9789023E-1,-1.2372299E-1,-7.244669E-2,-1.579987E0,-2.3020673E-1,-1.546102E0,-1.2334282E-1,3.3867578E-3,-1.10234E-1,2.4171604E-1,1.3041515E0,-7.0129883E-1,1.2479879E0,-1.1920175E-1,1.2085123E0,-1.7247902E0,4.9871427E-1,-8.6277467E-1,-1.8284678E0,-4.2559188E-2,9.078548E-2,-1.7827163E0,-7.481742E-1,-1.5753125E0,7.9450065E-1,-9.15926E-2,1.2258126E0,-6.2351745E-1,-1.6310264E0,8.508447E-2,-3.0657982E-2,-1.6009839E-1,-1.7303239E0,1.5450315E-1,-1.6312653E0,-1.23658136E-1,-1.2795615E0,-3.1886137E-1,1.2686945E0,7.907569E-1,1.3228409E0,-1.550821E0,-2.6371792E-1,-3.0182397E-3,1.3027352E0,1.2557997E0,-3.0284498E-2,-3.3254996E-2,-1.2590945E-1,2.2416841E-3,5.879925E-2,-1.2547687E-1,4.0496337E-1,-4.9709614E-2,-1.8393699E0,-1.2374102E-1,-2.7799426E-2,-1.1874769E0,2.46999E-1,-1.7713748E-2,-1.262354E-1,-1.00762285E-2,8.1626445E-2,1.2853264E0,-6.2739946E-2,-1.0310034E0,1.0074606E-1,-1.6490769E0,6.0432667E-1,9.039118E-1,-1.1438762E0,-1.7729686E0,-6.3607025E-1,4.5595047E-1,-1.2493838E0,-1.2476117E-1,3.8564306E-2,-8.980728E-1,-1.2295613E-1,-9.409043E-1,8.372044E-1,9.008795E-2,2.9968536E-2,-9.6137226E-2,1.0793985E0,1.3271394E0,-2.9250526E-1,4.8712853E-2,-1.7242799E0,4.33919E-2,-1.654664E0,3.2673884E-2,9.055168E-2,1.2919031E0,2.845116E-4,7.260356E-2,-2.3097567E-2,-1.2582527E-1,-5.729142E-2,-7.112136E-1,-1.73955E0,6.511936E-1,-1.4716084E0,-2.9827285E-4,1.3193741E0,-1.4985065E0,4.410301E-1,-1.6689285E0,4.1089195E-1,-6.307612E-2,8.7226E-2,8.436923E-2,1.0827803E-2,-1.147872E-1,1.5934496E-3,-1.1453191E0,-1.8020627E0,3.397329E-2,-1.00959726E-1,7.81249E-1,-5.8746594E-1,-1.2906332E-1,-3.6132836E-1,-1.1099242E0,6.730675E-1,-1.13116324E-1,-2.6112113E-2,7.622733E-2,-8.142652E-2,4.6238065E-2,-9.470443E-2,7.893698E-2,-9.930763E-2,-5.5951267E-2,9.038843E-2,-1.557784E-1,3.1010682E-2,-5.0756317E-2,-1.2442155E-1,2.1379042E-2,-1.1561439E-1,-2.9505286E-2,-1.3532023E-1,8.885145E-2,3.876191E-2,-6.203468E-2,7.076277E-2,-1.2533735E-1,2.2453124E-2,-1.0387536E-1,5.9578642E-2,-2.0093393E-2,-1.2285191E-1,9.1201134E-2,4.1104533E-2,8.92112E-3,-1.13880105E-1,7.4225254E-2,-1.1305491E-1,-1.2418521E-1,-1.0238657E-1,9.2471756E-2,-1.0351957E-1,-1.1000877E-1,-6.664281E-3,-6.653182E-2,-1.24129176E-1,-9.935395E-2,6.184459E-2,3.7072532E-2,-8.754653E-2,3.6948107E-2,-1.15552515E-1,-1.0687179E-1,-1.8429087E-2,-9.180606E-3,7.891054E-2],"categories":[],"categories_nodes":[],"categories_segments":[],"categories_sizes":[],"default_left":[0,0,0,0,0,0,0,0,0,0,0,0,0,0,0,0,0,0,0,0,0,0,0,0,0,0,0,0,0,0,0,0,0,0,0,0,0,0,0,0,0,0,0,0,0,0,0,0,0,0,0,0,0,0,0,0,0,0,0,0,0,0,0,0,0,0,0,0,0,0,0,0,0,0,0,0,0,0,0,0,0,0,0,0,0,0,0,0,0,0,0,0,0,0,0,0,0,0,0,0,0,0,0,0,0,0,0,0,0,0,0,0,0,0,0,0,0,0,0,0,0,0,0,0,0,0,0,0,0,0,0,0,0,0,0,0,0,0,0,0,0,0,0,0,0,0,0,0,0,0,0,0,0,0,0,0,0,0,0,0,0,0,0,0,0,0,0,0,0,0,0,0,0,0,0,0,0,0,0,0,0,0,0,0,0,0,0,0,0,0,0,0,0,0,0,0,0,0,0,0,0,0,0,0,0,0,0,0,0,0,0,0,0,0,0,0,0,0,0,0,0],"id":5,"left_children":[1,3,5,7,9,11,13,15,17,19,21,23,25,27,29,-1,-1,31,-1,33,-1,35,37,39,41,43,45,47,49,-1,-1,-1,51,53,55,57,59,61,-1,63,65,67,69,71,73,-1,-1,75,77,79,-1,-1,-1,81,83,85,87,-1,89,91,93,95,97,-1,-1,99,101,103,105,-1,107,109,111,-1,-1,113,115,117,119,-1,121,123,125,127,129,131,133,-1,135,137,-1,-1,-1,-1,-1,-1,139,-1,141,-1,-1,143,145,-1,-1,-1,-1,147,-1,149,-1,151,153,155,157,159,161,163,165,-1,-1,167,-1,169,171,-1,-1,173,175,177,179,-1,181,183,185,-1,-1,187,-1,-1,-1,-1,-1,189,191,193,195,-1,197,199,201,203,205,-1,-1,-1,-1,-1,-1,207,209,-1,-1,211,213,-1,215,217,219,-1,-1,-1,-1,-1,-1,-1,-1,-1,-1,-1,-1,-1,-1,-1,-1,-1,-1,-1,-1,-1,-1,-1,-1,-1,-1,-1,-1,-1,-1,-1,-1,-1,-1,-1,-1,-1,-1,-1,-1,-1,-1,-1,-1,-1,-1,-1,-1,-1,-1,-1,-1],"loss_changes":[1.3977564E4,4.1132314E3,2.731523E3,2.3151367E1,1.951169E3,8.409004E2,2.6909321E3,1.9724365E1,1.4701904E1,4.4602344E2,4.5616162E2,3.2743402E2,7.872266E1,2.1563257E2,1.804159E3,0E0,0E0,2.1851807E0,0E0,3.3312695E2,0E0,2.4597612E2,2.9535095E1,1.5124103E2,1.24988144E2,1.4987305E2,5.966797E-1,1.9304144E2,7.1500244E0,0E0,0E0,0E0,6.3257303E0,1.4998633E2,1.9593477E2,1.2549251E2,3.0553635E1,9.623779E0,0E0,1.586063E1,8.3826385E1,4.2515377E1,5.5099625E1,1.13028564E2,9.218681E0,0E0,0E0,3.9186096E1,1.350964E2,1.3279419E1,0E0,0E0,0E0,7.9324104E1,6.3179688E1,5.0845207E1,5.8858795E0,0E0,1.1295944E1,7.507202E0,1.2539912E0,1.8803234E1,1.6234131E0,0E0,0E0,5.307831E0,9.8903755E1,9.885826E0,4.2438655E0,0E0,1.9854492E1,1.06930786E2,6.233838E1,0E0,0E0,2.071498E1,6.668457E0,8.4021225E1,2.5045593E1,0E0,2.0963318E1,6.513339E1,1.6434708E0,6.092868E1,4.5222656E1,1.9584534E1,3.946072E1,0E0,1.1871185E0,6.038727E0,0E0,0E0,0E0,0E0,0E0,0E0,3.887575E0,0E0,8.4942627E-1,0E0,0E0,3.9952362E1,4.951753E1,0E0,0E0,0E0,0E0,6.2644806E0,0E0,7.194097E1,0E0,6.2367676E1,1.4584259E1,2.2031689E0,6.5130033E0,8.623047E-1,8.273324E0,5.5807835E1,1.950969E1,0E0,0E0,2.3088276E1,0E0,2.2937847E1,1.9668795E1,0E0,0E0,6.0505398E1,3.844809E1,1.8801758E1,2.7873928E1,0E0,3.0902557E0,3.6637226E1,5.9514008E0,0E0,0E0,5.637512E-1,0E0,0E0,0E0,0E0,0E0,3.1070961E1,1.5852417E1,2.9335907E1,4.8154182E0,0E0,1.2750244E0,2.2724045E1,3.6980522E1,3.5568848E1,2.9914566E1,0E0,0E0,0E0,0E0,0E0,0E0,4.7019463E0,9.9108887E-1,0E0,0E0,3.7022873E1,3.183588E1,0E0,2.0321772E1,2.2586525E1,3.5372794E0,0E0,0E0,0E0,0E0,0E0,0E0,0E0,0E0,0E0,0E0,0E0,0E0,0E0,0E0,0E0,0E0,0E0,0E0,0E0,0E0,0E0,0E0,0E0,0E0,0E0,0E0,0E0,0E0,0E0,0E0,0E0,0E0,0E0,0E0,0E0,0E0,0E0,0E0,0E0,0E0,0E0,0E0,0E0,0E0,0E0,0E0,0E0,0E0,0E0,0E0,0E0,0E0],"parents":[2147483647,0,0,1,1,2,2,3,3,4,4,5,5,6,6,7,7,8,8,9,9,10,10,11,11,12,12,13,13,14,14,17,17,19,19,21,21,22,22,23,23,24,24,25,25,26,26,27,27,28,28,32,32,33,33,34,34,35,35,36,36,37,37,39,39,40,40,41,41,42,42,43,43,44,44,47,47,48,48,49,49,53,53,54,54,55,55,56,56,58,58,59,59,60,60,61,61,62,62,65,65,66,66,67,67,68,68,70,70,71,71,72,72,75,75,76,76,77,77,78,78,80,80,81,81,82,82,83,83,84,84,85,85,86,86,88,88,89,89,96,96,98,98,101,101,102,102,107,107,109,109,111,111,112,112,113,113,114,114,115,115,116,116,117,117,118,118,121,121,123,123,124,124,127,127,128,128,129,129,130,130,132,132,133,133,134,134,137,137,143,143,144,144,145,145,146,146,148,148,149,149,150,150,151,151,152,152,159,159,160,160,163,163,164,164,166,166,167,167,168,168],"right_children":[2,4,6,8,10,12,14,16,18,20,22,24,26,28,30,-1,-1,32,-1,34,-1,36,38,40,42,44,46,48,50,-1,-1,-1,52,54,56,58,60,62,-1,64,66,68,70,72,74,-1,-1,76,78,80,-1,-1,-1,82,84,86,88,-1,90,92,94,96,98,-1,-1,100,102,104,106,-1,108,110,112,-1,-1,114,116,118,120,-1,122,124,126,128,130,132,134,-1,136,138,-1,-1,-1,-1,-1,-1,140,-1,142,-1,-1,144,146,-1,-1,-1,-1,148,-1,150,-1,152,154,156,158,160,162,164,166,-1,-1,168,-1,170,172,-1,-1,174,176,178,180,-1,182,184,186,-1,-1,188,-1,-1,-1,-1,-1,190,192,194,196,-1,198,200,202,204,206,-1,-1,-1,-1,-1,-1,208,210,-1,-1,212,214,-1,216,218,220,-1,-1,-1,-1,-1,-1,-1,-1,-1,-1,-1,-1,-1,-1,-1,-1,-1,-1,-1,-1,-1,-1,-1,-1,-1,-1,-1,-1,-1,-1,-1,-1,-1,-1,-1,-1,-1,-1,-1,-1,-1,-1,-1,-1,-1,-1,-1,-1,-1,-1,-1,-1],"split_conditions":[-9.845538E-1,-8.924927E-1,7.954911E-1,-4.2183973E-2,-1.6425899E-1,-3.5694307E-1,2.4130867E-1,-1.2884001E-1,1.6918229E-1,-3.205847E-2,-1.2760189E-1,-1.3114038E-1,-3.8392588E-1,-6.184432E-1,-2.5014472E-1,-1.1109244E-1,8.036891E-2,-3.5109788E-1,1.1237708E-2,1.4710553E0,-1.2203888E-1,-1.5119787E0,-1.2337543E-1,-6.0304634E-2,-1.421312E-1,-3.8025928E-1,9.466604E-1,-6.897803E-2,-2.3593977E-1,9.105915E-2,-1.23333246E-1,-1.2364603E-1,-1.2740329E-1,-1.7958997E-1,-4.539441E-2,-1.8418603E-1,-6.513668E-1,-1.2221471E-1,6.503887E-2,-1.6638105E-1,-1.2881048E-1,-1.02388084E-1,-1.7958997E-1,-2.3667471E-1,-2.5617892E-1,-1.2372299E-1,-7.244669E-2,-2.3675878E-1,-1.4725345E-1,-6.924124E-2,-1.2334282E-1,3.3867578E-3,-1.10234E-1,-4.538373E-2,-1.0239864E-1,-9.95039E-1,5.3345775E-3,-1.1920175E-1,-5.482026E-2,-1.3871632E0,-9.4069296E-1,9.505371E-1,-3.7331733E-1,-4.2559188E-2,9.078548E-2,-2.5792542E-1,-1.3563165E-1,-3.8958675E-1,-1.2884559E-1,-9.15926E-2,-1.2975146E-1,-1.5988897E-1,-6.535571E-2,8.508447E-2,-3.0657982E-2,-3.6551332E-1,-2.702113E-2,7.889451E-1,-1.0609641E-1,-1.23658136E-1,-1.3822713E-1,1.0417659E0,-3.6382136E-1,-7.192899E-2,8.0441546E-1,-2.117709E-1,-8.234038E-2,-3.0182397E-3,-7.192899E-2,-4.56413E-1,-3.0284498E-2,-3.3254996E-2,-1.2590945E-1,2.2416841E-3,5.879925E-2,-1.2547687E-1,-4.130578E-1,-4.9709614E-2,-5.256098E-1,-1.2374102E-1,-2.7799426E-2,-3.134585E-1,-3.8557392E-1,-1.7713748E-2,-1.262354E-1,-1.00762285E-2,8.1626445E-2,-1.7764679E0,-6.2739946E-2,-2.4244413E-1,1.0074606E-1,4.518261E0,2.2800973E-2,-8.8377304E-2,-1.6822204E-1,-2.3123625E-1,-1.639596E-1,1.4351094E0,7.4769306E-1,-1.2476117E-1,3.8564306E-2,-2.7771482E-1,-1.2295613E-1,-2.8998348E-1,-9.17982E-2,9.008795E-2,2.9968536E-2,-1.2377172E-1,-5.0912786E-2,-8.594376E-1,-9.9503475E-1,4.8712853E-2,-1.0239875E-1,1.6117038E-1,-1.3642946E0,3.2673884E-2,9.055168E-2,-7.48208E-3,2.845116E-4,7.260356E-2,-2.3097567E-2,-1.2582527E-1,-5.729142E-2,-1.12450816E-1,2.416068E0,-1.8826407E-1,-1.7330153E0,-2.9827285E-4,-6.2735283E-1,-3.5691255E-1,-1.02398746E-1,-2.1046935E-1,-1.2324652E-1,-6.307612E-2,8.7226E-2,8.436923E-2,1.0827803E-2,-1.147872E-1,1.5934496E-3,-1.18739724E-1,-4.225573E-1,3.397329E-2,-1.00959726E-1,7.961572E-1,-2.0491983E-1,-1.2906332E-1,-1.5494221E-1,-3.143884E-1,-3.7332726E-1,-1.13116324E-1,-2.6112113E-2,7.622733E-2,-8.142652E-2,4.6238065E-2,-9.470443E-2,7.893698E-2,-9.930763E-2,-5.5951267E-2,9.038843E-2,-1.557784E-1,3.1010682E-2,-5.0756317E-2,-1.2442155E-1,2.1379042E-2,-1.1561439E-1,-2.9505286E-2,-1.3532023E-1,8.885145E-2,3.876191E-2,-6.203468E-2,7.076277E-2,-1.2533735E-1,2.2453124E-2,-1.0387536E-1,5.9578642E-2,-2.0093393E-2,-1.2285191E-1,9.1201134E-2,4.1104533E-2,8.92112E-3,-1.13880105E-1,7.4225254E-2,-1.1305491E-1,-1.2418521E-1,-1.0238657E-1,9.2471756E-2,-1.0351957E-1,-1.1000877E-1,-6.664281E-3,-6.653182E-2,-1.24129176E-1,-9.935395E-2,6.184459E-2,3.7072532E-2,-8.754653E-2,3.6948107E-2,-1.15552515E-1,-1.0687179E-1,-1.8429087E-2,-9.180606E-3,7.891054E-2],"split_indices":[52,100,99,13,17,48,45,7,1,13,1,153,58,51,21,0,0,87,0,157,0,79,101,160,10,60,135,15,106,0,0,0,131,1,70,1,51,1,0,1,7,57,1,126,47,0,0,126,8,15,0,0,0,70,57,52,112,0,160,79,88,100,65,0,0,21,101,142,7,0,106,123,33,0,0,142,72,12,101,0,96,150,143,161,79,17,117,0,161,82,0,0,0,0,0,0,76,0,53,0,0,28,88,0,0,0,0,163,0,47,0,3,1,9,96,108,0,100,110,0,0,124,0,137,131,0,0,3,160,11,52,0,57,143,11,0,0,154,0,0,0,0,0,81,113,1,103,0,52,48,57,17,0,0,0,0,0,0,0,93,142,0,0,99,23,0,53,45,59,0,0,0,0,0,0,0,0,0,0,0,0,0,0,0,0,0,0,0,0,0,0,0,0,0,0,0,0,0,0,0,0,0,0,0,0,0,0,0,0,0,0,0,0,0,0,0,0,0,0,0,0],"split_type":[0,0,0,0,0,0,0,0,0,0,0,0,0,0,0,0,0,0,0,0,0,0,0,0,0,0,0,0,0,0,0,0,0,0,0,0,0,0,0,0,0,0,0,0,0,0,0,0,0,0,0,0,0,0,0,0,0,0,0,0,0,0,0,0,0,0,0,0,0,0,0,0,0,0,0,0,0,0,0,0,0,0,0,0,0,0,0,0,0,0,0,0,0,0,0,0,0,0,0,0,0,0,0,0,0,0,0,0,0,0,0,0,0,0,0,0,0,0,0,0,0,0,0,0,0,0,0,0,0,0,0,0,0,0,0,0,0,0,0,0,0,0,0,0,0,0,0,0,0,0,0,0,0,0,0,0,0,0,0,0,0,0,0,0,0,0,0,0,0,0,0,0,0,0,0,0,0,0,0,0,0,0,0,0,0,0,0,0,0,0,0,0,0,0,0,0,0,0,0,0,0,0,0,0,0,0,0,0,0,0,0,0,0,0,0,0,0,0,0,0,0],"sum_hessian":[1.4812095E4,8.107979E3,6.7041157E3,5.381708E2,7.569808E3,4.3606543E3,2.3434612E3,8.090383E0,5.300804E2,7.0948784E3,4.7492984E2,5.698653E2,3.790789E3,1.0649031E3,1.2785582E3,3.4879725E0,4.6024103E0,5.264322E2,3.6481743E0,7.0470454E3,4.783285E1,2.1109854E2,2.638313E2,3.7996924E2,1.8989606E2,1.6638551E3,2.126934E3,4.3304678E2,6.318563E2,1.0601914E3,2.1836685E2,5.17184E2,9.248164E0,6.8287944E3,2.1825122E2,1.5141379E2,5.9684746E1,2.6041348E2,3.4178095E0,3.368054E1,3.462887E2,3.681493E1,1.5308113E2,1.6411971E3,2.2657982E1,2.1210518E3,5.882293E0,1.8387216E2,2.491746E2,2.1481834E2,4.1703796E2,3.276591E0,5.971573E0,1.3608432E2,6.69271E3,1.3687842E2,8.13728E1,1.5101759E1,1.3631203E2,5.3150295E1,6.534452E0,1.3513995E1,2.4689949E2,4.175919E0,2.9504618E1,1.2172961E2,2.245591E2,2.7167194E1,9.647735E0,8.031916E0,1.4504921E2,1.2193252E2,1.5192645E3,1.9410032E1,3.2479496E0,1.7802029E1,1.6607013E2,1.9619272E2,5.2981888E1,1.0358021E2,1.1123814E2,8.847801E1,4.7606316E1,2.3660231E2,6.456108E3,4.567012E1,9.12083E1,3.314794E0,7.805801E1,1.3275621E2,3.555814E0,5.3564324E0,4.779386E1,3.3521757E0,3.1822762E0,7.3611956E0,6.1527996E0,3.0963006E0,2.4380319E2,1.1831701E2,3.4125974E0,1.5565468E2,6.890441E1,5.107153E0,2.2060041E1,3.0909584E0,6.556776E0,1.415293E2,3.519917E0,1.0257763E2,1.9354885E1,1.5073549E3,1.1909701E1,8.591274E0,9.210755E0,1.5924391E2,6.8262253E0,1.6206813E2,3.412459E1,4.8667965E1,4.3139195E0,6.612136E1,4.511677E1,5.7646397E1,3.0831614E1,4.406523E1,3.5410812E0,5.825921E1,1.783431E2,6.439152E3,1.6956053E1,3.0241058E0,4.2646015E1,7.550598E1,1.5702315E1,3.174605E0,7.48834E1,1.2900288E2,3.7533352E0,3.0271432E0,3.1256566E0,2.4057167E2,3.2315276E0,8.479333E1,7.086136E1,5.6287415E1,1.2616993E1,3.6626139E0,1.3786668E2,7.783881E1,2.473882E1,1.4931554E3,1.4199483E1,3.540488E0,8.369213E0,5.4619665E0,3.1293075E0,5.9821305E0,3.2286253E0,8.842829E0,1.5040108E2,3.0937173E0,3.732508E0,1.2374141E2,3.832672E1,1.9079142E1,1.5045448E1,5.8523632E1,7.5977287E0,2.4252974E1,3.3393425E1,2.7458912E1,3.3727016E0,3.674005E1,2.1519157E1,1.7337398E2,4.969113E0,3.4484692E0,6.435703E3,4.060326E0,1.2895726E1,4.8944535E0,3.775156E1,6.605934E1,9.446644E0,3.8671787E0,1.1835136E1,1.2576957E2,3.233309E0,7.6512695E1,8.280632E0,6.762193E1,3.2394311E0,4.7163496E0,5.1571068E1,3.2063425E0,9.41065E0,1.3308745E2,4.77924E0,7.5790987E0,7.025971E1,1.926558E1,5.4732385E0,7.5999335E2,7.3316205E2,9.724505E0,4.4749775E0,5.723062E0,3.1197667E0,5.132206E0,1.4526888E2,6.105786E0,1.1763563E2,1.4715733E1,2.3610989E1,9.328864E0,5.7165837E0,3.7215977E1,2.1307653E1,3.127682E0,4.4700465E0],"tree_param":{"num_deleted":"0","num_feature":"165","num_nodes":"221","size_leaf_vector":"1"}},{"base_weights":[1.8354176E-2,8.7726647E-1,-9.9787396E-1,-1.6786376E0,1.0648303E0,-1.4364539E0,-1.7081074E-1,-1.6994768E0,-8.36821E-3,1.1897956E0,-8.413481E-1,-3.5859105E-1,-1.5898315E0,-1.2610933E0,7.6972497E-1,-1.1715613E-1,-7.904064E-1,-7.328239E-2,7.6053604E-2,1.2361522E0,1.8867703E-2,1.8903197E-1,-1.6842463E0,-1.2520299E0,4.9474552E-1,-1.4272506E0,-1.171181E-1,-7.300791E-1,-1.6267462E0,8.904389E-2,-1.1687936E-1,1.4263134E-1,-1.1088522E-1,1.2486265E0,-1.13875814E-1,-5.932188E-1,1.1783993E0,-1.17358066E-1,6.8935204E-1,-1.0080538E0,-1.1704865E-1,-1.5699207E0,-6.79562E-1,7.292189E-1,-1.2953815E0,-1.454852E0,9.1809195E-1,-3.1861964E-1,-1.4900355E0,-1.4473956E0,-1.1672311E-1,-6.0008094E-2,8.217868E-2,1.5449624E-1,1.271136E0,-1.5045599E0,-1.6722521E-1,-3.916832E-2,1.2511134E0,1.029252E0,-1.1371345E-1,5.1550154E-2,-1.10829234E-1,-1.1029782E0,-1.6960071E0,-1.1604362E-1,-2.2403272E-3,9.14936E-1,-9.9284846E-1,-1.1673896E-1,5.8399014E-2,-1.4862033E0,4.5204276E-1,8.642305E-2,-2.9438883E-2,2.1251202E-1,-1.2569004E0,6.544428E-2,-1.5922852E0,-5.546686E-1,-1.5149448E0,-8.925747E-1,7.664363E-1,1.2768605E0,-1.1652341E0,2.90517E-2,-1.6901064E0,8.970663E-2,-1.6977379E0,6.792338E-4,8.841568E-2,1.1559384E0,-9.2612E-2,-1.5686339E0,-3.968061E-2,-1.1694331E-1,-6.682355E-2,1.1024629E0,-7.733394E-1,-4.5631194E-1,1.0863816E0,8.2878816E-1,-1.2578417E-1,-1.0450661E0,-1.605543E0,9.136245E-2,-1.1841885E-1,-1.4670339E0,7.2692823E-1,-1.4325709E0,7.875245E-2,-1.7106767E0,-9.646194E-1,8.8888353E-1,-1.10480055E-1,-1.6828997E0,-1.1646435E0,-1.7146256E0,1.6663451E-1,-5.278744E-1,9.5387566E-1,7.5224686E-1,1.2934853E0,4.824617E-2,-1.4479469E-1,-4.0338665E-2,-1.19055204E-1,-7.886676E-1,5.372105E-1,-1.2862006E-1,-4.830605E-2,1.2500819E0,-1.451117E-1,-2.2615183E-2,-1.1881465E-1,-1.0103014E-1,9.0621823E-1,8.691829E-2,2.3520167E-3,6.980737E-1,-1.290393E0,-1.3551457E-1,1.5435895E-1,1.1727245E0,-9.0690696E-1,1.4418102E-2,7.709414E-2,-1.3313129E0,1.0589805E-1,-1.7039016E0,-1.362268E0,-1.6843143E0,4.125942E-2,-1.1068988E0,8.603662E-1,-6.080839E-1,-1.7326052E0,-6.3648056E-3,-1.1913568E-1,1.10038884E-1,-1.4621445E0,2.8165497E-2,7.9676546E-2,-1.7253848E0,1.0587599E-3,-1.6719548E0,1.3437739E-1,-1.320136E-1,7.0018256E-3,4.9228273E-2,-1.0964686E-1,2.0398617E-2,-1.3352779E-1,7.439131E-2,-2.2256514E-2,7.706388E-2,-6.2026978E-2,8.8260226E-2,-4.525309E-3,-8.102696E-2,3.7766974E-2,-9.091396E-2,5.68725E-2,8.695726E-2,2.6310617E-2,6.581212E-2,-8.603842E-2,2.0617923E-2,8.375242E-2,-1.1456267E-2,8.145439E-2,-1.2093193E-1,3.7500303E-2,4.768461E-2,-1.0386622E-1,8.2365654E-2,-4.1992392E-2,2.8359316E-2,-1.1413295E-1,-9.668237E-2,5.1878955E-2,-1.0219277E-1,-1.18513145E-1,-1.04078665E-1,-4.3466136E-2,-4.949326E-2,-1.2088171E-1,-1.24780595E-1,2.833099E-2,6.755141E-2,-6.683126E-2,-1.03238836E-1,3.412995E-2,-5.5105917E-2,-1.20069794E-1,-6.390797E-2,5.771555E-2,-3.429711E-2,-1.1776626E-1,-4.9845714E-2,-1.1876323E-1,-4.220152E-2,-1.1767789E-1,-6.844536E-2,6.1931457E-2],"categories":[],"categories_nodes":[],"categories_segments":[],"categories_sizes":[],"default_left":[0,0,0,0,0,0,0,0,0,0,0,0,0,0,0,0,0,0,0,0,0,0,0,0,0,0,0,0,0,0,0,0,0,0,0,0,0,0,0,0,0,0,0,0,0,0,0,0,0,0,0,0,0,0,0,0,0,0,0,0,0,0,0,0,0,0,0,0,0,0,0,0,0,0,0,0,0,0,0,0,0,0,0,0,0,0,0,0,0,0,0,0,0,0,0,0,0,0,0,0,0,0,0,0,0,0,0,0,0,0,0,0,0,0,0,0,0,0,0,0,0,0,0,0,0,0,0,0,0,0,0,0,0,0,0,0,0,0,0,0,0,0,0,0,0,0,0,0,0,0,0,0,0,0,0,0,0,0,0,0,0,0,0,0,0,0,0,0,0,0,0,0,0,0,0,0,0,0,0,0,0,0,0,0,0,0,0,0,0,0,0,0,0,0,0,0,0,0,0,0,0,0,0,0,0,0,0,0,0,0,0,0,0,0,0,0,0,0,0,0,0,0,0,0,0],"id":6,"left_children":[1,3,5,7,9,11,13,15,17,19,21,23,25,27,29,-1,31,-1,-1,33,35,37,39,41,43,45,-1,47,49,-1,-1,51,-1,53,-1,55,57,-1,59,61,-1,63,65,67,69,71,73,75,77,79,-1,-1,-1,81,83,85,87,-1,89,91,-1,-1,-1,93,95,-1,97,99,101,-1,-1,103,105,-1,-1,107,109,-1,111,113,115,117,119,121,123,-1,125,127,129,-1,-1,131,-1,133,135,-1,-1,137,139,141,143,145,-1,147,149,-1,-1,151,153,155,-1,157,159,161,-1,163,165,167,169,171,173,175,177,-1,-1,-1,-1,179,181,-1,-1,183,185,-1,-1,-1,187,-1,-1,189,191,-1,193,195,197,-1,-1,199,-1,201,203,205,-1,207,209,211,213,-1,-1,215,217,-1,-1,219,-1,221,223,-1,-1,-1,-1,-1,-1,-1,-1,-1,-1,-1,-1,-1,-1,-1,-1,-1,-1,-1,-1,-1,-1,-1,-1,-1,-1,-1,-1,-1,-1,-1,-1,-1,-1,-1,-1,-1,-1,-1,-1,-1,-1,-1,-1,-1,-1,-1,-1,-1,-1,-1,-1,-1,-1,-1,-1,-1,-1],"loss_changes":[1.2522585E4,3.7291733E3,2.3834849E3,1.8501465E1,1.7266201E3,7.0934863E2,2.3373198E3,9.309692E0,1.0301802E1,3.690254E2,3.879184E2,4.0944162E2,7.786328E1,2.0376758E2,1.6428591E3,0E0,1.15481825E1,0E0,0E0,2.3947461E2,1.8518184E2,1.9432921E2,4.2426147E0,4.6656525E1,1.1636645E2,1.1049072E2,0E0,1.3469006E2,7.449463E0,0E0,0E0,9.536352E0,0E0,1.602002E2,0E0,6.6054214E1,1.2217064E1,0E0,1.3059476E2,1.7484879E1,0E0,8.011414E0,6.6281845E1,7.887317E1,3.0626022E1,1.00329346E2,1.0167755E1,1.4065382E2,3.9527832E1,1.2004059E1,0E0,0E0,0E0,8.553307E1,9.048633E1,2.0174545E1,4.6362854E1,0E0,5.1957703E0,4.427826E1,0E0,0E0,0E0,1.9023521E1,4.2218018E-1,0E0,5.065049E1,5.2350082E1,3.9274452E1,0E0,0E0,8.467285E1,5.648738E1,0E0,0E0,1.5721822E2,4.490518E1,0E0,9.189453E0,2.6999601E1,9.656128E0,4.321859E1,2.0910316E1,5.4554688E1,2.9444742E1,0E0,2.2156067E0,4.0348904E1,1.8805351E0,0E0,0E0,1.6651398E1,0E0,5.29834E0,1.8795752E1,0E0,0E0,4.52277E0,2.754086E1,2.3950027E1,3.4856903E1,1.3418965E0,0E0,2.6427228E2,2.852539E1,0E0,0E0,2.026178E1,3.497238E1,2.2570465E1,0E0,7.7368164E0,1.3763353E1,5.459142E-1,0E0,9.494507E0,4.4530937E1,1.1616562E1,2.3401783E1,1.3986481E1,1.3544983E1,1.2630365E2,3.0760742E1,0E0,0E0,0E0,0E0,1.9405869E1,3.9094193E1,0E0,0E0,2.5299225E0,1.3636034E1,0E0,0E0,0E0,1.2596807E0,0E0,0E0,4.4191175E0,2.4527802E1,0E0,1.8493021E1,1.35047E1,9.588522E0,0E0,0E0,6.069757E1,0E0,4.3737793E0,4.456256E1,2.1438599E0,0E0,1.169052E1,3.2733467E1,2.8022991E1,6.245575E-1,0E0,0E0,7.753049E0,3.6214485E0,0E0,0E0,1.2697754E0,0E0,1.8573151E0,1.843882E1,0E0,0E0,0E0,0E0,0E0,0E0,0E0,0E0,0E0,0E0,0E0,0E0,0E0,0E0,0E0,0E0,0E0,0E0,0E0,0E0,0E0,0E0,0E0,0E0,0E0,0E0,0E0,0E0,0E0,0E0,0E0,0E0,0E0,0E0,0E0,0E0,0E0,0E0,0E0,0E0,0E0,0E0,0E0,0E0,0E0,0E0,0E0,0E0,0E0,0E0,0E0,0E0,0E0,0E0,0E0,0E0,0E0,0E0],"parents":[2147483647,0,0,1,1,2,2,3,3,4,4,5,5,6,6,7,7,8,8,9,9,10,10,11,11,12,12,13,13,14,14,16,16,19,19,20,20,21,21,22,22,23,23,24,24,25,25,27,27,28,28,31,31,33,33,35,35,36,36,38,38,39,39,41,41,42,42,43,43,44,44,45,45,46,46,47,47,48,48,49,49,53,53,54,54,55,55,56,56,58,58,59,59,63,63,64,64,66,66,67,67,68,68,71,71,72,72,75,75,76,76,78,78,79,79,80,80,81,81,82,82,83,83,84,84,86,86,87,87,88,88,91,91,93,93,94,94,97,97,98,98,99,99,100,100,101,101,103,103,104,104,107,107,108,108,109,109,111,111,112,112,113,113,115,115,116,116,117,117,118,118,119,119,120,120,121,121,122,122,127,127,128,128,131,131,132,132,136,136,139,139,140,140,142,142,143,143,144,144,147,147,149,149,150,150,151,151,153,153,154,154,155,155,156,156,159,159,160,160,163,163,165,165,166,166],"right_children":[2,4,6,8,10,12,14,16,18,20,22,24,26,28,30,-1,32,-1,-1,34,36,38,40,42,44,46,-1,48,50,-1,-1,52,-1,54,-1,56,58,-1,60,62,-1,64,66,68,70,72,74,76,78,80,-1,-1,-1,82,84,86,88,-1,90,92,-1,-1,-1,94,96,-1,98,100,102,-1,-1,104,106,-1,-1,108,110,-1,112,114,116,118,120,122,124,-1,126,128,130,-1,-1,132,-1,134,136,-1,-1,138,140,142,144,146,-1,148,150,-1,-1,152,154,156,-1,158,160,162,-1,164,166,168,170,172,174,176,178,-1,-1,-1,-1,180,182,-1,-1,184,186,-1,-1,-1,188,-1,-1,190,192,-1,194,196,198,-1,-1,200,-1,202,204,206,-1,208,210,212,214,-1,-1,216,218,-1,-1,220,-1,222,224,-1,-1,-1,-1,-1,-1,-1,-1,-1,-1,-1,-1,-1,-1,-1,-1,-1,-1,-1,-1,-1,-1,-1,-1,-1,-1,-1,-1,-1,-1,-1,-1,-1,-1,-1,-1,-1,-1,-1,-1,-1,-1,-1,-1,-1,-1,-1,-1,-1,-1,-1,-1,-1,-1,-1,-1,-1,-1],"split_conditions":[-9.845538E-1,-8.572683E-1,7.954911E-1,1.3716064E-1,-1.12072356E-1,-3.7023625E-1,2.4130867E-1,-3.5109788E-1,-1.2864329E-1,8.2778883E-1,-1.2760189E-1,-1.5841801E-1,-3.8392588E-1,-6.184432E-1,-3.0876184E-1,-1.1715613E-1,-1.5440652E-1,-7.328239E-2,7.6053604E-2,-3.2068036E-2,-2.7638067E-2,-1.8013623E-1,-3.871582E-1,-1.7787588E-1,-5.482026E-2,-3.8025928E-1,-1.171181E-1,1.5287812E0,-2.3593977E-1,8.904389E-2,-1.1687936E-1,-1.6973545E-1,-1.1088522E-1,-1.7958997E-1,-1.13875814E-1,-9.95039E-1,-2.968972E-1,-1.17358066E-1,-3.2068036E-2,-1.0505551E0,-1.1704865E-1,-3.2078478E-1,-1.2874043E-1,-1.8272822E-1,8.607545E-1,-7.3386736E-2,-1.4927524E-1,-8.580014E-2,-3.531186E-1,-2.3667471E-1,-1.1672311E-1,-6.0008094E-2,8.217868E-2,-1.8201141E-1,-1.8582882E-1,-1.6115992E-1,1.6117038E-1,-3.916832E-2,-6.654666E-1,-5.482026E-2,-1.1371345E-1,5.1550154E-2,-1.10829234E-1,2.1497113E-1,3.2793838E-1,-1.1604362E-1,-8.295487E-1,-1.5246314E-1,-8.228166E-1,-1.1673896E-1,5.8399014E-2,-1.5894482E-1,1.0524633E-2,8.642305E-2,-2.9438883E-2,-1.5672527E-1,1.4571255E0,6.544428E-2,1.1548748E0,-2.7984548E-1,-1.0239321E-1,-2.8774813E-1,-3.871616E-1,-1.02394246E-1,-8.750778E-1,2.90517E-2,-9.426264E-1,3.3614805E-1,-1.6299818E-1,6.792338E-4,8.841568E-2,-3.8706744E-1,-9.2612E-2,-2.1244042E-1,-6.654666E-1,-1.1694331E-1,-6.682355E-2,-1.3532141E-1,-3.714866E-2,-1.3142179E-1,6.569901E-2,1.0269817E0,-1.2578417E-1,-1.5988897E-1,-2.0695968E-1,9.136245E-2,-1.1841885E-1,-4.5390174E-2,-3.8715154E-1,-3.871574E-1,7.875245E-2,-9.4263303E-1,1.5759401E0,-1.4251679E-1,-1.10480055E-1,3.6499362E-2,4.2499134E-1,-4.539441E-2,-1.1579131E0,-3.0014655E-1,-1.3568152E-1,-8.0194436E-2,8.0441546E-1,4.824617E-2,-1.4479469E-1,-4.0338665E-2,-1.19055204E-1,-1.8900158E-1,-9.4069296E-1,-1.2862006E-1,-4.830605E-2,-1.36907E-1,-1.2623326E-1,-2.2615183E-2,-1.1881465E-1,-1.0103014E-1,-1.5740648E-1,8.691829E-2,2.3520167E-3,-2.332314E-1,-2.0139636E-1,-1.3551457E-1,-6.2735283E-1,-3.9856097E-1,-8.453557E-1,1.4418102E-2,7.709414E-2,1.1541147E0,1.0589805E-1,-1.3843164E0,9.564995E-1,-2.3702912E-1,4.125942E-2,-1.7831844E-1,-9.8181486E-2,-3.8090736E-1,-2.1082237E0,-6.3648056E-3,-1.1913568E-1,-5.01909E-1,-1.13275774E-1,2.8165497E-2,7.9676546E-2,-3.703207E-1,1.0587599E-3,-4.0343067E-1,-2.9077262E-1,-1.320136E-1,7.0018256E-3,4.9228273E-2,-1.0964686E-1,2.0398617E-2,-1.3352779E-1,7.439131E-2,-2.2256514E-2,7.706388E-2,-6.2026978E-2,8.8260226E-2,-4.525309E-3,-8.102696E-2,3.7766974E-2,-9.091396E-2,5.68725E-2,8.695726E-2,2.6310617E-2,6.581212E-2,-8.603842E-2,2.0617923E-2,8.375242E-2,-1.1456267E-2,8.145439E-2,-1.2093193E-1,3.7500303E-2,4.768461E-2,-1.0386622E-1,8.2365654E-2,-4.1992392E-2,2.8359316E-2,-1.1413295E-1,-9.668237E-2,5.1878955E-2,-1.0219277E-1,-1.18513145E-1,-1.04078665E-1,-4.3466136E-2,-4.949326E-2,-1.2088171E-1,-1.24780595E-1,2.833099E-2,6.755141E-2,-6.683126E-2,-1.03238836E-1,3.412995E-2,-5.5105917E-2,-1.20069794E-1,-6.390797E-2,5.771555E-2,-3.429711E-2,-1.1776626E-1,-4.9845714E-2,-1.1876323E-1,-4.220152E-2,-1.1767789E-1,-6.844536E-2,6.1931457E-2],"split_indices":[52,102,99,1,8,40,45,87,7,158,1,1,58,51,22,0,130,0,0,4,72,1,58,1,160,60,0,100,106,0,0,129,0,1,0,52,149,0,4,157,0,163,7,89,143,36,129,9,42,126,0,0,0,141,41,16,143,0,111,160,0,0,0,149,53,0,89,132,138,0,0,123,52,0,0,8,138,0,103,51,63,91,58,63,54,0,88,112,137,0,0,58,0,1,111,0,0,120,103,1,3,157,0,123,18,0,0,70,64,58,0,88,104,105,0,103,147,70,151,142,10,162,79,0,0,0,0,155,88,0,0,1,131,0,0,0,130,0,0,137,125,0,52,78,54,0,0,153,0,56,147,126,0,129,88,54,127,0,0,54,162,0,0,40,0,143,137,0,0,0,0,0,0,0,0,0,0,0,0,0,0,0,0,0,0,0,0,0,0,0,0,0,0,0,0,0,0,0,0,0,0,0,0,0,0,0,0,0,0,0,0,0,0,0,0,0,0,0,0,0,0,0,0,0,0],"split_type":[0,0,0,0,0,0,0,0,0,0,0,0,0,0,0,0,0,0,0,0,0,0,0,0,0,0,0,0,0,0,0,0,0,0,0,0,0,0,0,0,0,0,0,0,0,0,0,0,0,0,0,0,0,0,0,0,0,0,0,0,0,0,0,0,0,0,0,0,0,0,0,0,0,0,0,0,0,0,0,0,0,0,0,0,0,0,0,0,0,0,0,0,0,0,0,0,0,0,0,0,0,0,0,0,0,0,0,0,0,0,0,0,0,0,0,0,0,0,0,0,0,0,0,0,0,0,0,0,0,0,0,0,0,0,0,0,0,0,0,0,0,0,0,0,0,0,0,0,0,0,0,0,0,0,0,0,0,0,0,0,0,0,0,0,0,0,0,0,0,0,0,0,0,0,0,0,0,0,0,0,0,0,0,0,0,0,0,0,0,0,0,0,0,0,0,0,0,0,0,0,0,0,0,0,0,0,0,0,0,0,0,0,0,0,0,0,0,0,0,0,0,0,0,0,0],"sum_hessian":[1.4344762E4,7.774185E3,6.570576E3,5.309575E2,7.2432275E3,4.2932104E3,2.2773657E3,5.243974E2,6.56013E0,6.797944E3,4.4528397E2,5.352278E2,3.7579827E3,1.0545618E3,1.222804E3,5.1094653E2,1.3450838E1,3.3883152E0,3.1718147E0,6.539011E3,2.589324E2,2.0070853E2,2.4457544E2,2.612418E2,2.7398596E2,1.6851926E3,2.07279E3,4.312629E2,6.232988E2,1.00544037E3,2.1736362E2,6.762574E0,6.6882644E0,6.511666E3,2.7345062E1,1.6979204E2,8.914038E1,4.1088806E1,1.5961972E2,1.3826141E1,2.307493E2,1.6684859E2,9.439319E1,2.4277907E2,3.1206905E1,1.6659662E3,1.9226362E1,2.807027E2,1.5056021E2,2.1199673E2,4.113021E2,3.5346093E0,3.2279646E0,1.3142245E2,6.3802437E3,5.3278923E1,1.1651311E2,3.2729084E0,8.586748E1,1.400219E2,1.959783E1,3.5391989E0,1.02869425E1,3.7546936E1,1.2930167E2,3.6933655E1,5.745953E1,2.1956833E2,2.3210743E1,2.6281254E1,4.9256506E0,1.6392361E3,2.6730146E1,1.5298705E1,3.9276571E0,1.7973424E2,1.00968475E2,5.6908984E0,1.4486931E2,1.5560561E1,1.9643617E2,4.830711E1,8.311535E1,6.3657627E3,1.4480876E1,4.555488E0,4.8723434E1,1.0057129E2,1.594182E1,3.262459E0,8.260502E1,1.334648E2,6.557098E0,2.5781189E1,1.1765747E1,1.2395587E2,5.345785E0,2.3443638E1,3.4015892E1,2.4216822E1,1.953515E2,7.4288692E0,1.5781875E1,3.5111215E2,1.2881239E3,1.928357E1,7.446578E0,4.1707916E1,1.3802632E2,9.449914E1,6.46934E0,1.2042843E2,2.444088E1,6.692269E0,8.868293E0,1.3020442E2,6.623176E1,2.6850046E1,2.1457064E1,1.0284227E1,7.2831116E1,1.9695305E2,6.1688096E3,5.0036106E0,9.477265E0,3.0750306E0,4.5648403E1,3.3687016E1,6.688427E1,1.257648E1,3.3653402E0,1.24495514E2,8.969277E0,3.5984747E0,2.2182714E1,4.429163E0,7.336584E0,1.9974897E1,3.4687393E0,8.75399E0,2.5261904E1,6.247733E0,1.7969088E1,1.8763539E2,7.7161083E0,3.0140617E0,4.4148073E0,3.1674725E2,3.4364906E1,9.1298865E2,3.7513522E2,3.792164E1,3.7862794E0,8.867384E0,1.2915894E2,2.6020935E1,6.84782E1,3.0042145E0,1.1742421E2,7.9808993E0,1.6459982E1,3.4132245E0,3.2790444E0,1.2701151E2,3.192904E0,4.7424007E1,1.8807755E1,2.3825861E1,3.024185E0,1.6791428E1,4.6656375E0,7.0231996E0,3.261028E0,6.581365E1,7.0174665E0,1.6056763E2,3.638543E1,6.1523184E3,1.649156E1,2.6014734E1,7.67228E0,8.718419E0,5.816585E1,1.2013202E2,4.363493E0,4.566958E0,4.4023194E0,3.2436285E0,4.0929556E0,3.4414773E0,5.312513E0,2.0006792E1,5.2551117E0,1.4000541E1,3.9685478E0,1.840732E2,3.5622E0,3.0077653E0,4.708343E0,3.04056E2,1.2691273E1,1.5052858E2,7.624601E2,3.037549E2,7.1380325E1,4.115788E0,3.380585E1,5.864621E0,3.0027626E0,1.20929184E2,8.229748E0,1.4100614E1,1.1920321E1,3.1793756E0,6.529882E1,3.1834884E0,4.797411E0,4.234444E0,1.2225537E1,3.2575665E0,1.23753944E2,3.0706189E0,4.435339E1,7.4949594E0,1.1312795E1],"tree_param":{"num_deleted":"0","num_feature":"165","num_nodes":"225","size_leaf_vector":"1"}},{"base_weights":[1.9165423E-2,8.561588E-1,-9.565185E-1,-1.5963908E0,1.0401355E0,-1.480479E0,-3.4478128E-1,5.594345E-2,-1.6201577E0,1.1631495E0,-8.508944E-1,-5.251634E-1,-1.5427182E0,-1.0961869E0,9.114482E-1,-7.008243E-2,7.557769E-2,-1.632162E0,-6.330432E-3,1.2118413E0,2.9863738E-2,1.6088605E-1,-1.6042527E0,-1.0639497E0,8.343603E-1,-1.0912026E0,-1.5745642E0,1.3684018E-1,-1.3254613E0,8.725119E-2,-1.11238964E-1,-1.1172285E-1,-9.9753135E-1,1.2225008E0,-1.0800662E-1,-5.5519944E-1,1.1662505E0,-1.0523279E0,9.4117254E-1,-9.0987235E-1,-1.6448921E0,-1.2797035E0,-4.9333335E-3,-1.02002665E-1,1.18869E0,-1.12712845E-1,-7.536384E-1,-2.803027E-1,-1.5800892E0,9.4838834E-1,-1.0407852E0,-1.0806534E0,-1.13310285E-1,2.3417594E-3,-1.0044167E-1,1.6284662E-1,1.2443749E0,-1.4072659E0,-1.538992E-1,-3.4431104E-2,1.2293478E0,3.7073028E-1,-1.07544355E-1,1.1486793E0,-1.0195384E-1,3.5607226E-2,-1.05599724E-1,-4.3666545E-2,-1.1263382E-1,-1.3993464E0,2.3567735E-1,5.872384E-1,-9.298724E-2,8.570425E-2,2.9939795E-3,-1.4130132E0,-2.2536846E-1,-9.92583E-2,6.2642954E-2,